179 200
</s> 0.002001 0.002210 -0.001915 -0.001639 0.000683 0.001511 0.000470 0.000106 -0.001802 0.001109 -0.002178 0.000625 -0.000376 -0.000479 -0.001658 -0.000941 0.001290 0.001513 0.001485 0.000799 0.000772 -0.001901 -0.002048 0.002485 0.001901 0.001545 -0.000302 0.002008 -0.000247 0.000367 -0.000075 -0.001492 0.000656 -0.000669 -0.001913 0.002377 0.002190 -0.000548 -0.000113 0.000255 -0.001819 -0.002004 0.002277 0.000032 -0.001291 -0.001521 -0.001538 0.000848 0.000101 0.000666 -0.002107 -0.001904 -0.000065 0.000572 0.001275 -0.001585 0.002040 0.000463 0.000560 -0.000304 0.001493 -0.001144 -0.001049 0.001079 -0.000377 0.000515 0.000902 -0.002044 -0.000992 0.001457 0.002116 0.001966 -0.001523 -0.001054 -0.000455 0.001001 -0.001894 0.001499 0.001394 -0.000799 -0.000776 -0.001119 0.002114 0.001956 -0.000590 0.002107 0.002410 0.000908 0.002491 -0.001556 -0.000766 -0.001054 -0.001454 0.001407 0.000790 0.000212 -0.001097 0.000762 0.001530 0.000097 0.001140 -0.002476 0.002157 0.000240 -0.000916 -0.001042 -0.000374 -0.001468 -0.002185 -0.001419 0.002139 -0.000885 -0.001340 0.001159 -0.000852 0.002378 -0.000802 -0.002294 0.001358 -0.000037 -0.001744 0.000488 0.000721 -0.000241 0.000912 -0.001979 0.000441 0.000908 -0.001505 0.000071 -0.000030 -0.001200 -0.001416 -0.002347 0.000011 0.000076 0.000005 -0.001967 -0.002481 -0.002373 -0.002163 -0.000274 0.000696 0.000592 -0.001591 0.002499 -0.001006 -0.000637 -0.000702 0.002366 -0.001882 0.000581 -0.000668 0.001594 0.000020 0.002135 -0.001410 -0.001303 -0.002096 -0.001833 -0.001600 -0.001557 0.001222 -0.000933 0.001340 0.001845 0.000678 0.001475 0.001238 0.001170 -0.001775 -0.001717 -0.001828 -0.000066 0.002065 -0.001368 -0.001530 -0.002098 0.001653 -0.002089 -0.000290 0.001089 -0.002309 -0.002239 0.000721 0.001762 0.002132 0.001073 0.001581 -0.001564 -0.001820 0.001987 -0.001382 0.000877 0.000287 0.000895 -0.000591 0.000099 -0.000843 -0.000563 
you -0.112979 -0.173585 0.208811 -0.183624 0.191177 -0.364164 -0.229318 -0.065305 0.075057 -0.115517 -0.133376 0.030176 -0.085400 -0.199381 0.124063 -0.017955 0.146837 0.189115 0.109902 -0.077554 -0.097834 0.225121 0.089587 0.080759 -0.035141 -0.152280 -0.092037 0.104115 0.031803 0.141516 0.136273 -0.137570 -0.277541 0.317059 -0.065778 -0.022448 0.173852 0.042792 -0.076237 0.184724 0.166395 0.092943 -0.025838 -0.377838 -0.020965 0.124977 -0.044737 -0.063334 0.178466 -0.006450 0.229270 0.045682 0.264585 0.119429 -0.039260 -0.020746 -0.007204 0.151194 -0.010740 -0.223519 0.145581 -0.284285 -0.120005 0.063112 -0.195346 0.039159 0.090479 0.066058 0.163300 0.006928 -0.018994 0.101778 0.063142 -0.128280 -0.095748 0.224950 -0.416530 0.202851 -0.162366 -0.173343 0.125938 -0.129731 -0.348762 -0.015601 0.283521 0.011659 -0.004849 -0.237937 0.392143 -0.405483 -0.082042 0.052635 0.223328 0.008771 0.033984 0.037094 0.266571 0.027587 0.019721 -0.024510 -0.093473 0.203370 0.027093 -0.008965 0.035920 0.134154 0.168267 0.020515 -0.053839 0.271820 -0.118695 0.206380 0.058416 -0.170037 -0.068764 0.410432 0.177367 -0.350665 0.097326 0.116001 0.200557 -0.056417 -0.067059 -0.253590 0.037347 0.051102 0.079739 -0.101860 0.118924 -0.012407 -0.084285 0.042129 -0.179370 0.027410 0.177800 0.131245 0.174241 -0.186232 0.075540 -0.072200 0.031260 0.336218 -0.343811 0.029685 0.025436 0.073059 -0.135506 0.026287 -0.186953 -0.110209 -0.145195 -0.186769 0.004416 -0.190683 -0.034567 0.055254 0.042813 0.083216 0.107015 0.068080 -0.010255 0.047004 -0.095155 -0.305922 0.101779 0.199342 -0.205147 -0.060920 0.357227 0.021786 -0.205075 -0.085873 0.148516 0.042607 -0.231486 -0.013860 0.090631 -0.056232 -0.294684 -0.028980 0.025643 -0.014635 0.313881 -0.166391 -0.122002 0.347983 -0.199571 -0.100710 0.082609 0.124389 -0.006473 0.088105 -0.174652 -0.047588 0.127999 0.083922 -0.263748 0.121371 0.075602 -0.093644 
the -0.129466 -0.197879 0.235257 -0.210174 0.220769 -0.414607 -0.266400 -0.071130 0.086433 -0.132412 -0.152979 0.040609 -0.097718 -0.226064 0.140980 -0.021258 0.163202 0.217729 0.126359 -0.086087 -0.112579 0.258132 0.105830 0.087861 -0.036825 -0.179552 -0.106844 0.120086 0.042529 0.155162 0.153458 -0.157889 -0.317005 0.365771 -0.072779 -0.028177 0.197192 0.055075 -0.085309 0.215397 0.187144 0.103062 -0.032086 -0.433471 -0.022584 0.138690 -0.049073 -0.076986 0.206977 -0.003299 0.260327 0.054683 0.303821 0.141819 -0.049820 -0.024318 -0.005056 0.178387 -0.012726 -0.253563 0.164737 -0.322157 -0.135768 0.073965 -0.228642 0.042955 0.104480 0.075306 0.187189 0.009680 -0.018120 0.110292 0.074734 -0.144008 -0.114171 0.261891 -0.477479 0.229026 -0.180018 -0.194509 0.140853 -0.150979 -0.399920 -0.022869 0.321758 0.012349 -0.003389 -0.267131 0.446517 -0.460432 -0.091801 0.059598 0.253415 0.012277 0.037594 0.046543 0.307168 0.031471 0.021364 -0.030524 -0.103954 0.231207 0.026078 -0.011762 0.042031 0.156473 0.187427 0.028670 -0.062000 0.308568 -0.134135 0.235497 0.066665 -0.192687 -0.078896 0.466266 0.206145 -0.397515 0.106171 0.136873 0.231021 -0.068170 -0.074090 -0.288690 0.046662 0.062379 0.085920 -0.118763 0.133534 -0.011744 -0.092921 0.049321 -0.205356 0.028596 0.200552 0.146521 0.203583 -0.210767 0.085012 -0.085374 0.033567 0.382810 -0.388479 0.033184 0.026417 0.087024 -0.154164 0.030825 -0.217905 -0.126149 -0.170464 -0.212449 0.007609 -0.215192 -0.034096 0.063389 0.052001 0.091766 0.122280 0.084397 -0.015429 0.053204 -0.114173 -0.347541 0.112735 0.221747 -0.233343 -0.069097 0.410049 0.024840 -0.234469 -0.101183 0.173882 0.052889 -0.262034 -0.014566 0.103486 -0.058862 -0.337253 -0.030638 0.028923 -0.018522 0.360425 -0.184218 -0.140613 0.398778 -0.229215 -0.114857 0.096322 0.147108 -0.003433 0.100305 -0.201766 -0.058194 0.146780 0.094829 -0.302306 0.137865 0.084906 -0.109913 
to -0.101542 -0.161201 0.192494 -0.171460 0.177317 -0.337770 -0.217020 -0.059615 0.070659 -0.107059 -0.125928 0.032671 -0.082412 -0.182445 0.116281 -0.018583 0.134612 0.177023 0.099392 -0.071582 -0.090565 0.207818 0.084484 0.072866 -0.029102 -0.144321 -0.087797 0.099882 0.030457 0.129411 0.128070 -0.124398 -0.260466 0.295497 -0.056325 -0.020327 0.162836 0.044754 -0.066605 0.172759 0.154223 0.086769 -0.027850 -0.350821 -0.020031 0.117058 -0.043365 -0.060867 0.168782 -0.003042 0.215059 0.043656 0.249257 0.112651 -0.039061 -0.017153 -0.004212 0.144728 -0.012709 -0.207890 0.132019 -0.263513 -0.113149 0.057348 -0.184487 0.038022 0.084970 0.059085 0.149662 0.008510 -0.015421 0.094474 0.057352 -0.117754 -0.092147 0.212570 -0.387995 0.187923 -0.150345 -0.158831 0.114083 -0.123216 -0.323435 -0.015603 0.262343 0.009059 -0.003308 -0.219539 0.364952 -0.373664 -0.073269 0.050356 0.205539 0.006365 0.028338 0.038013 0.249334 0.027566 0.017733 -0.022478 -0.083457 0.190005 0.023939 -0.009570 0.032008 0.126779 0.153601 0.018846 -0.048239 0.250491 -0.106984 0.189887 0.055260 -0.155922 -0.063459 0.378163 0.166394 -0.323630 0.088414 0.110138 0.190576 -0.053053 -0.059780 -0.232531 0.035553 0.049517 0.073469 -0.098256 0.110154 -0.009062 -0.078860 0.041232 -0.167229 0.022915 0.161622 0.120509 0.164054 -0.175051 0.068899 -0.066024 0.027171 0.315113 -0.318338 0.024293 0.023252 0.071749 -0.123101 0.028197 -0.177527 -0.101754 -0.139856 -0.172611 0.002581 -0.176973 -0.027579 0.052003 0.041108 0.072831 0.103497 0.065620 -0.011405 0.043189 -0.089537 -0.285865 0.091183 0.181457 -0.192202 -0.058509 0.333877 0.019198 -0.192458 -0.081148 0.137936 0.038889 -0.216956 -0.012146 0.082863 -0.051867 -0.272593 -0.026912 0.021163 -0.014721 0.295644 -0.153473 -0.116455 0.325184 -0.183151 -0.091740 0.079593 0.115030 -0.005297 0.082999 -0.160529 -0.044239 0.119024 0.074117 -0.246232 0.112077 0.068798 -0.085695 
and -0.100761 -0.160534 0.192673 -0.172569 0.177556 -0.336314 -0.213035 -0.061687 0.072271 -0.106994 -0.127088 0.030691 -0.080107 -0.180412 0.114935 -0.020432 0.134663 0.172827 0.099445 -0.067829 -0.091685 0.205344 0.083176 0.071428 -0.033946 -0.146270 -0.086517 0.094442 0.034795 0.128528 0.124389 -0.123705 -0.256738 0.290032 -0.057024 -0.020458 0.161143 0.040236 -0.069553 0.174089 0.151394 0.083726 -0.027729 -0.351363 -0.016008 0.111342 -0.039417 -0.061366 0.166656 -0.005480 0.214724 0.040183 0.245946 0.110265 -0.039758 -0.020352 -0.002222 0.138859 -0.010214 -0.205462 0.135102 -0.257297 -0.112448 0.056063 -0.179681 0.034985 0.082666 0.061154 0.148289 0.008123 -0.013599 0.088108 0.060330 -0.118091 -0.089648 0.205679 -0.382545 0.187076 -0.149655 -0.157762 0.113329 -0.121173 -0.319458 -0.015953 0.255638 0.009336 -0.004819 -0.216236 0.360016 -0.373403 -0.074883 0.044589 0.207464 0.009727 0.031212 0.039525 0.249553 0.028902 0.018865 -0.022752 -0.083386 0.183730 0.024705 -0.009982 0.032645 0.123589 0.154320 0.020699 -0.046884 0.249222 -0.108170 0.188475 0.055732 -0.156902 -0.065449 0.377054 0.164046 -0.322853 0.086955 0.108556 0.183188 -0.050669 -0.060865 -0.233602 0.036199 0.046836 0.073561 -0.093525 0.107119 -0.012337 -0.076268 0.038965 -0.163494 0.023664 0.162654 0.116608 0.160487 -0.172462 0.066820 -0.069128 0.027730 0.306964 -0.316192 0.025868 0.017567 0.070599 -0.125626 0.028605 -0.176505 -0.101955 -0.134404 -0.172847 0.002225 -0.176279 -0.026499 0.051905 0.042380 0.075433 0.096976 0.067166 -0.011997 0.040376 -0.087852 -0.283063 0.093089 0.184703 -0.187037 -0.055893 0.326887 0.020191 -0.190414 -0.084174 0.136017 0.042148 -0.210773 -0.009002 0.084725 -0.050895 -0.268399 -0.026466 0.024009 -0.015353 0.291004 -0.149132 -0.111218 0.321229 -0.183941 -0.089525 0.075210 0.118384 -0.004603 0.081417 -0.160478 -0.043371 0.118140 0.074870 -0.244684 0.113494 0.069963 -0.084640 
I -0.110711 -0.168063 0.199504 -0.179406 0.188465 -0.351684 -0.223650 -0.060272 0.073977 -0.114359 -0.132838 0.030214 -0.083366 -0.193724 0.118837 -0.022072 0.140941 0.184633 0.104674 -0.074862 -0.096468 0.214221 0.083706 0.075664 -0.034807 -0.150435 -0.092486 0.104091 0.032574 0.135069 0.134084 -0.132731 -0.270710 0.309983 -0.060081 -0.019225 0.169183 0.045826 -0.069959 0.181731 0.159913 0.088711 -0.024016 -0.368218 -0.022739 0.122524 -0.044189 -0.061271 0.175066 -0.002402 0.224809 0.042561 0.259880 0.119182 -0.041747 -0.018622 -0.009378 0.152433 -0.013630 -0.214663 0.140365 -0.276241 -0.115206 0.061558 -0.193895 0.036247 0.086966 0.065052 0.156897 0.007120 -0.014249 0.093470 0.063604 -0.124394 -0.096427 0.222300 -0.404215 0.194549 -0.158775 -0.168560 0.122962 -0.125814 -0.341087 -0.016684 0.274677 0.009587 -0.007389 -0.230427 0.381026 -0.393916 -0.078173 0.051839 0.219963 0.009678 0.030584 0.040905 0.257335 0.026494 0.022482 -0.022873 -0.090171 0.194829 0.024768 -0.009039 0.034774 0.131686 0.165312 0.023400 -0.054338 0.263834 -0.115827 0.199010 0.059811 -0.164714 -0.064850 0.396339 0.171010 -0.340489 0.090520 0.117628 0.197755 -0.058039 -0.062835 -0.246976 0.036328 0.052506 0.074055 -0.101408 0.111136 -0.011413 -0.077826 0.040865 -0.175215 0.024467 0.172618 0.126158 0.171752 -0.182481 0.071042 -0.069222 0.031849 0.328185 -0.333696 0.025459 0.019201 0.072727 -0.132824 0.028072 -0.181036 -0.105120 -0.143977 -0.182765 0.005545 -0.187232 -0.030343 0.057209 0.043674 0.080594 0.106978 0.068566 -0.010568 0.043257 -0.092762 -0.298191 0.095211 0.193261 -0.199500 -0.061005 0.347140 0.021203 -0.201723 -0.088544 0.143292 0.044470 -0.224977 -0.011176 0.086707 -0.049526 -0.287594 -0.027598 0.022567 -0.016271 0.307328 -0.158430 -0.120558 0.338029 -0.191419 -0.100192 0.080407 0.122760 -0.002402 0.086190 -0.168234 -0.046409 0.122823 0.078998 -0.256031 0.118527 0.074452 -0.089605 
your -0.086713 -0.133969 0.162277 -0.141590 0.146914 -0.282392 -0.180811 -0.052193 0.059113 -0.089451 -0.104931 0.027809 -0.065030 -0.154017 0.098597 -0.016383 0.112835 0.146390 0.084711 -0.061300 -0.078467 0.174233 0.070691 0.059056 -0.024914 -0.122200 -0.073105 0.083359 0.026742 0.108352 0.105429 -0.105598 -0.214426 0.247471 -0.047131 -0.015928 0.133550 0.033702 -0.057026 0.146418 0.130849 0.072174 -0.021515 -0.297383 -0.015118 0.094559 -0.035165 -0.051873 0.139949 -0.003523 0.180671 0.033835 0.207700 0.096382 -0.031233 -0.018212 -0.004507 0.119112 -0.009289 -0.172196 0.112885 -0.220209 -0.091181 0.051942 -0.152126 0.028762 0.069737 0.048734 0.124821 0.004533 -0.011101 0.078267 0.047713 -0.098178 -0.073764 0.175788 -0.324143 0.158279 -0.123246 -0.131699 0.099243 -0.101939 -0.269218 -0.016427 0.217842 0.004915 -0.002825 -0.183283 0.305184 -0.313016 -0.062826 0.040485 0.175553 0.008983 0.027626 0.031620 0.210696 0.023576 0.017359 -0.019350 -0.069546 0.157314 0.017960 -0.010290 0.028187 0.106970 0.127316 0.016374 -0.043105 0.208451 -0.091263 0.158443 0.044186 -0.130227 -0.054403 0.316581 0.137285 -0.272442 0.071672 0.094761 0.156239 -0.045191 -0.050676 -0.198241 0.027833 0.039882 0.060012 -0.081527 0.089616 -0.010360 -0.064513 0.034456 -0.141650 0.019886 0.137413 0.101332 0.135851 -0.147580 0.058752 -0.057642 0.025727 0.260224 -0.264558 0.021310 0.016550 0.058253 -0.105364 0.023648 -0.149559 -0.087011 -0.117010 -0.142725 0.006239 -0.149550 -0.022518 0.044898 0.033941 0.060657 0.083414 0.054739 -0.008042 0.034855 -0.073246 -0.239937 0.077182 0.152821 -0.160161 -0.045111 0.279300 0.016364 -0.158031 -0.068128 0.119323 0.034331 -0.178442 -0.007646 0.071332 -0.039481 -0.230733 -0.018942 0.016225 -0.011134 0.245111 -0.124676 -0.096595 0.270677 -0.156090 -0.076287 0.068288 0.096276 -0.005118 0.070699 -0.133749 -0.039955 0.100464 0.064435 -0.202936 0.091905 0.059739 -0.075503 
me -0.076380 -0.119795 0.143091 -0.127844 0.133666 -0.249685 -0.160422 -0.044073 0.050322 -0.081387 -0.093116 0.020702 -0.061551 -0.137277 0.085255 -0.014139 0.096551 0.131438 0.073759 -0.054873 -0.067563 0.155542 0.060009 0.054412 -0.023899 -0.102913 -0.064528 0.072694 0.023355 0.094883 0.091776 -0.092125 -0.191355 0.218816 -0.044818 -0.017112 0.120382 0.033832 -0.053945 0.127153 0.114628 0.061549 -0.021753 -0.257640 -0.017203 0.085356 -0.032355 -0.046378 0.124670 -0.005026 0.154381 0.033293 0.180132 0.082715 -0.031090 -0.013115 -0.001230 0.105137 -0.009280 -0.151001 0.101263 -0.191583 -0.080501 0.044128 -0.138142 0.026017 0.060144 0.045221 0.113478 0.003712 -0.010560 0.068709 0.040774 -0.087579 -0.067485 0.155659 -0.286022 0.139109 -0.110225 -0.118702 0.086404 -0.092895 -0.240793 -0.011721 0.192904 0.007544 -0.003204 -0.163120 0.266804 -0.273857 -0.052322 0.032774 0.152590 0.007686 0.023698 0.030416 0.185172 0.020156 0.013829 -0.020462 -0.065289 0.137962 0.018733 -0.008196 0.025333 0.090738 0.113362 0.017152 -0.036839 0.187329 -0.081999 0.141061 0.041010 -0.113811 -0.050262 0.281279 0.121069 -0.236555 0.064623 0.083463 0.136034 -0.041827 -0.046966 -0.174127 0.025317 0.037681 0.053081 -0.070999 0.080686 -0.005480 -0.056032 0.031729 -0.123211 0.017338 0.120574 0.086115 0.120005 -0.126266 0.051867 -0.050573 0.021594 0.230029 -0.233483 0.018393 0.014873 0.050631 -0.094217 0.018671 -0.131458 -0.071978 -0.099239 -0.124874 0.006168 -0.131472 -0.019462 0.037411 0.028209 0.054479 0.075256 0.048909 -0.006848 0.034793 -0.068315 -0.210776 0.069451 0.134952 -0.139597 -0.041476 0.243399 0.013681 -0.141289 -0.062285 0.105385 0.027824 -0.158554 -0.008871 0.061572 -0.035400 -0.203054 -0.019931 0.019356 -0.010283 0.217128 -0.112996 -0.083963 0.235119 -0.138387 -0.066994 0.059603 0.087389 -0.004577 0.060737 -0.117899 -0.033054 0.085239 0.057955 -0.182896 0.081513 0.051518 -0.062660 
my -0.090967 -0.136958 0.163030 -0.148693 0.151620 -0.288534 -0.181936 -0.049241 0.060498 -0.090812 -0.106218 0.025808 -0.066661 -0.158979 0.097877 -0.018911 0.114156 0.149897 0.088113 -0.061618 -0.076555 0.176431 0.069676 0.060809 -0.025668 -0.124298 -0.076211 0.084180 0.027176 0.111149 0.108881 -0.107483 -0.218034 0.251513 -0.052011 -0.016673 0.138643 0.037479 -0.057907 0.147922 0.132300 0.074944 -0.020597 -0.302624 -0.015744 0.099517 -0.034586 -0.054764 0.141357 -0.005508 0.180946 0.037053 0.212529 0.095079 -0.034464 -0.013731 -0.002509 0.122616 -0.010966 -0.175701 0.116327 -0.225846 -0.093350 0.051808 -0.155593 0.029444 0.068679 0.051619 0.126581 0.007331 -0.013370 0.078487 0.051391 -0.099810 -0.077874 0.181352 -0.327107 0.162412 -0.128398 -0.138186 0.097456 -0.105398 -0.277920 -0.012194 0.223275 0.005358 -0.003897 -0.189360 0.308959 -0.318206 -0.065649 0.039795 0.176809 0.006782 0.024061 0.031024 0.213334 0.019738 0.014708 -0.020821 -0.071323 0.160153 0.020561 -0.007221 0.025403 0.105698 0.132307 0.021288 -0.039848 0.217017 -0.093495 0.164020 0.046479 -0.133481 -0.053118 0.324301 0.142625 -0.274501 0.074374 0.094352 0.160526 -0.044396 -0.051585 -0.201649 0.027912 0.039724 0.061173 -0.084810 0.093837 -0.009310 -0.067952 0.034724 -0.142787 0.018639 0.139090 0.101446 0.139003 -0.146807 0.057130 -0.058206 0.026521 0.267662 -0.271527 0.023889 0.016111 0.058582 -0.105296 0.022983 -0.152248 -0.086359 -0.114841 -0.149256 0.006269 -0.149590 -0.023807 0.043422 0.035807 0.066437 0.088328 0.054707 -0.007245 0.039001 -0.077788 -0.242682 0.076721 0.157588 -0.163050 -0.049014 0.284482 0.015371 -0.164389 -0.071546 0.117503 0.035590 -0.181746 -0.011751 0.071311 -0.044106 -0.232560 -0.018301 0.018027 -0.011011 0.251590 -0.130247 -0.099343 0.275956 -0.159208 -0.079915 0.065332 0.099742 -0.006037 0.069594 -0.140128 -0.037115 0.099419 0.065044 -0.206941 0.093454 0.059496 -0.074915 
of -0.104881 -0.160923 0.187623 -0.171691 0.175681 -0.330567 -0.210622 -0.057653 0.070440 -0.106811 -0.121001 0.031616 -0.079534 -0.184885 0.113502 -0.018081 0.132393 0.176378 0.098409 -0.072901 -0.091905 0.207789 0.084289 0.069619 -0.032012 -0.139871 -0.083978 0.098253 0.032565 0.124001 0.125094 -0.122966 -0.253241 0.294188 -0.057269 -0.019903 0.159641 0.041738 -0.070376 0.170911 0.154493 0.086177 -0.025012 -0.347069 -0.017443 0.110551 -0.039380 -0.061667 0.161940 -0.005429 0.206389 0.041547 0.242174 0.109391 -0.041005 -0.020219 -0.005041 0.141263 -0.008658 -0.204962 0.131767 -0.256199 -0.109404 0.060432 -0.183715 0.035794 0.082492 0.059000 0.145950 0.005612 -0.015888 0.090447 0.056479 -0.118231 -0.088456 0.210397 -0.382019 0.186245 -0.147320 -0.158559 0.115693 -0.121034 -0.321770 -0.015210 0.259340 0.005947 -0.000883 -0.215526 0.360926 -0.371751 -0.073821 0.045197 0.203467 0.009503 0.027310 0.039622 0.247665 0.022784 0.016971 -0.025903 -0.083644 0.184115 0.020066 -0.011787 0.033221 0.126323 0.154816 0.022003 -0.047283 0.248355 -0.106316 0.188264 0.054851 -0.155872 -0.066053 0.373005 0.166116 -0.317594 0.086848 0.107937 0.184386 -0.053486 -0.058654 -0.231138 0.033828 0.046853 0.069121 -0.096105 0.107081 -0.009912 -0.077522 0.040206 -0.166865 0.020505 0.159884 0.119303 0.158987 -0.169565 0.066707 -0.067062 0.025724 0.309966 -0.312883 0.023440 0.017717 0.071097 -0.124041 0.024173 -0.171415 -0.099903 -0.135373 -0.172522 0.006637 -0.173094 -0.028156 0.048973 0.040235 0.075098 0.101829 0.064280 -0.010707 0.043945 -0.087326 -0.280614 0.091936 0.181410 -0.191314 -0.057839 0.327502 0.019757 -0.189507 -0.079964 0.139891 0.039411 -0.213949 -0.012870 0.085293 -0.048724 -0.270505 -0.023949 0.020132 -0.017808 0.291239 -0.150231 -0.114103 0.319301 -0.180259 -0.089428 0.077409 0.116382 -0.006335 0.079187 -0.162839 -0.044411 0.113709 0.073802 -0.242896 0.113265 0.068876 -0.086336 
a -0.062304 -0.091886 0.114509 -0.101950 0.103576 -0.198338 -0.122368 -0.034528 0.043113 -0.061610 -0.071162 0.015859 -0.048244 -0.108524 0.065431 -0.013401 0.075578 0.102030 0.059873 -0.044657 -0.052277 0.122438 0.050126 0.042864 -0.016215 -0.084912 -0.049076 0.057038 0.021208 0.073062 0.071988 -0.075877 -0.148285 0.173789 -0.036286 -0.009569 0.092221 0.022814 -0.040690 0.098755 0.091255 0.051998 -0.013081 -0.207118 -0.011551 0.066106 -0.022398 -0.033615 0.097781 -0.004549 0.122922 0.025735 0.146548 0.065160 -0.025134 -0.011760 -0.000876 0.084764 -0.009174 -0.122901 0.079577 -0.155586 -0.063812 0.032912 -0.106838 0.023729 0.050125 0.033464 0.090004 0.004834 -0.008323 0.055735 0.034895 -0.065873 -0.052814 0.121677 -0.223648 0.107538 -0.089500 -0.095277 0.067052 -0.071396 -0.191288 -0.010419 0.150601 0.002310 -0.005133 -0.127737 0.213624 -0.219922 -0.041291 0.029439 0.120819 0.006913 0.018737 0.022795 0.144353 0.016711 0.009544 -0.014025 -0.048420 0.107524 0.012633 -0.008096 0.019748 0.074310 0.091367 0.014542 -0.031164 0.148577 -0.061993 0.110758 0.030931 -0.089843 -0.036212 0.221653 0.096790 -0.188854 0.050785 0.065804 0.111771 -0.031659 -0.036512 -0.138722 0.019965 0.028779 0.041417 -0.057863 0.060700 -0.006448 -0.042586 0.022085 -0.095924 0.013442 0.095734 0.069908 0.096664 -0.102087 0.039745 -0.038059 0.016595 0.181872 -0.186940 0.014344 0.009354 0.042483 -0.071887 0.017112 -0.105251 -0.058122 -0.080025 -0.101094 0.000724 -0.103086 -0.017010 0.031625 0.022563 0.045674 0.058502 0.037235 -0.008418 0.027116 -0.053289 -0.166433 0.054943 0.107869 -0.112469 -0.033424 0.196004 0.013365 -0.111503 -0.045985 0.083941 0.025650 -0.126878 -0.006059 0.051317 -0.027842 -0.159086 -0.013533 0.013112 -0.007672 0.168344 -0.089385 -0.067914 0.186889 -0.110450 -0.054662 0.044859 0.066106 -0.004109 0.048335 -0.092069 -0.028921 0.067388 0.045881 -0.141781 0.066325 0.042109 -0.050856 
it -0.129855 -0.195051 0.237185 -0.212979 0.220453 -0.413508 -0.263285 -0.074548 0.088940 -0.134685 -0.152453 0.038421 -0.102500 -0.227418 0.139590 -0.022599 0.164076 0.218053 0.122133 -0.089237 -0.112706 0.254186 0.101034 0.086320 -0.037818 -0.178333 -0.103767 0.120102 0.041539 0.158788 0.154183 -0.154329 -0.316944 0.359193 -0.070645 -0.026936 0.195646 0.055176 -0.085868 0.214134 0.184610 0.107372 -0.031625 -0.434613 -0.024057 0.138784 -0.049436 -0.075899 0.205597 -0.006922 0.263565 0.050696 0.304856 0.141905 -0.050373 -0.026135 -0.009187 0.172414 -0.010728 -0.255030 0.167500 -0.319257 -0.140356 0.073471 -0.224403 0.046657 0.106610 0.074479 0.187137 0.007694 -0.020076 0.115073 0.069111 -0.146809 -0.109079 0.260317 -0.475499 0.231009 -0.183267 -0.199540 0.140500 -0.150082 -0.401930 -0.018422 0.322328 0.011674 -0.004579 -0.269719 0.444562 -0.458390 -0.091414 0.060252 0.253116 0.009332 0.035522 0.049180 0.302581 0.031880 0.023282 -0.029458 -0.103983 0.229058 0.029321 -0.013511 0.037745 0.150728 0.193513 0.028303 -0.063527 0.311780 -0.131345 0.234344 0.069982 -0.192631 -0.077211 0.469197 0.206712 -0.399022 0.109430 0.137540 0.230806 -0.066494 -0.074923 -0.287246 0.042719 0.060474 0.089962 -0.120318 0.133042 -0.009520 -0.094488 0.047878 -0.207379 0.028129 0.200848 0.149276 0.200917 -0.215179 0.083154 -0.085545 0.036460 0.380511 -0.391380 0.034774 0.023546 0.085745 -0.155929 0.030420 -0.217336 -0.125706 -0.169010 -0.211804 0.007141 -0.215659 -0.034712 0.064607 0.051044 0.092760 0.127227 0.084406 -0.015573 0.052158 -0.112453 -0.349859 0.112320 0.225682 -0.234362 -0.065036 0.409933 0.027902 -0.237699 -0.098504 0.173139 0.052850 -0.266093 -0.012713 0.104735 -0.061740 -0.336633 -0.029246 0.029625 -0.017363 0.358879 -0.184856 -0.137850 0.398441 -0.223797 -0.113160 0.094122 0.141374 -0.003279 0.102178 -0.197423 -0.056968 0.144191 0.097278 -0.302769 0.140353 0.086154 -0.108021 
is -0.108448 -0.164367 0.194703 -0.174738 0.184003 -0.344920 -0.218495 -0.057601 0.071813 -0.110077 -0.126856 0.033481 -0.083951 -0.188727 0.119909 -0.020490 0.135877 0.180931 0.105016 -0.075699 -0.093438 0.215495 0.086772 0.072385 -0.034051 -0.148812 -0.090654 0.099853 0.035517 0.132763 0.130451 -0.127891 -0.263524 0.303734 -0.061603 -0.019131 0.165951 0.042013 -0.068856 0.176891 0.155587 0.084777 -0.023642 -0.360698 -0.019502 0.116280 -0.043871 -0.064089 0.171604 -0.003678 0.217404 0.042486 0.250553 0.114204 -0.038148 -0.017408 -0.007345 0.148384 -0.011028 -0.212127 0.134703 -0.270342 -0.112683 0.063108 -0.189832 0.039710 0.082843 0.062480 0.154651 0.006524 -0.016214 0.092548 0.061274 -0.121969 -0.092346 0.217082 -0.395964 0.192368 -0.149992 -0.165224 0.117133 -0.127036 -0.332734 -0.017506 0.266915 0.009146 -0.007117 -0.222864 0.373220 -0.383178 -0.076832 0.050457 0.211160 0.009508 0.029279 0.037328 0.254828 0.028848 0.018890 -0.025433 -0.084643 0.192414 0.024552 -0.011901 0.032817 0.125298 0.160541 0.023705 -0.048473 0.254805 -0.113416 0.195422 0.058768 -0.160496 -0.062584 0.389669 0.167826 -0.329779 0.088099 0.114919 0.194509 -0.053393 -0.065438 -0.240842 0.035665 0.052628 0.073830 -0.097834 0.108379 -0.008820 -0.080590 0.040429 -0.167708 0.024801 0.167739 0.122986 0.167055 -0.176094 0.070027 -0.070700 0.028034 0.317793 -0.326911 0.025534 0.021080 0.072389 -0.130435 0.027656 -0.176688 -0.103157 -0.139742 -0.177186 0.005453 -0.183787 -0.030893 0.052762 0.041139 0.074184 0.101155 0.068700 -0.008145 0.043410 -0.091043 -0.287985 0.093080 0.186727 -0.193770 -0.058030 0.339010 0.020070 -0.194973 -0.083884 0.141898 0.041075 -0.218758 -0.012054 0.084577 -0.048525 -0.276965 -0.023347 0.024112 -0.017434 0.300982 -0.156466 -0.117181 0.327501 -0.187501 -0.096633 0.081452 0.121659 -0.004938 0.085463 -0.164825 -0.045680 0.121029 0.079705 -0.249066 0.117779 0.072903 -0.089723 
You -0.066050 -0.100683 0.122568 -0.108716 0.110796 -0.216151 -0.135468 -0.035815 0.046781 -0.068017 -0.081088 0.018288 -0.050229 -0.115369 0.072536 -0.012415 0.085464 0.112260 0.065667 -0.043330 -0.059666 0.132399 0.051214 0.044859 -0.020809 -0.092613 -0.056151 0.063502 0.022431 0.080531 0.076788 -0.078865 -0.163010 0.188411 -0.038906 -0.011964 0.103675 0.027773 -0.045352 0.109607 0.098644 0.052066 -0.014234 -0.223889 -0.012545 0.075219 -0.025231 -0.040678 0.106378 -0.003232 0.135257 0.029013 0.156362 0.069277 -0.024695 -0.013464 -0.004063 0.087295 -0.007876 -0.131957 0.083910 -0.164652 -0.072348 0.036709 -0.115923 0.025500 0.051788 0.037259 0.097117 0.001389 -0.010413 0.058361 0.037618 -0.073997 -0.057330 0.131511 -0.244578 0.116413 -0.094044 -0.099411 0.075004 -0.075909 -0.203150 -0.008038 0.162064 0.004354 -0.002827 -0.139350 0.227202 -0.233875 -0.049693 0.027792 0.132832 0.005928 0.019573 0.023687 0.157840 0.017473 0.013576 -0.017867 -0.051560 0.116848 0.012913 -0.004716 0.020963 0.081000 0.097235 0.014221 -0.031262 0.156834 -0.067528 0.122535 0.032834 -0.100682 -0.039511 0.238443 0.104465 -0.204148 0.058302 0.071630 0.116793 -0.032993 -0.039923 -0.149730 0.021628 0.031015 0.047351 -0.060204 0.070641 -0.006649 -0.046584 0.023619 -0.102379 0.013880 0.103169 0.074796 0.103395 -0.111834 0.045559 -0.043280 0.017936 0.198649 -0.199291 0.016105 0.011959 0.041909 -0.081506 0.015210 -0.113344 -0.064092 -0.089013 -0.109057 0.002165 -0.113015 -0.020130 0.033317 0.028196 0.045115 0.063937 0.040985 -0.008059 0.029612 -0.056348 -0.178873 0.056300 0.114165 -0.122129 -0.036088 0.211051 0.014727 -0.119109 -0.052565 0.089110 0.025114 -0.137232 -0.008380 0.053867 -0.029226 -0.174031 -0.016668 0.016148 -0.010691 0.185232 -0.095889 -0.073176 0.203135 -0.116475 -0.060560 0.050213 0.073635 -0.001244 0.050127 -0.101129 -0.030856 0.075941 0.047836 -0.155231 0.072872 0.044932 -0.055240 
in -0.080728 -0.126769 0.152951 -0.134647 0.144303 -0.266708 -0.171380 -0.048451 0.054048 -0.085286 -0.098463 0.025513 -0.063517 -0.144302 0.092530 -0.013036 0.105469 0.139635 0.079358 -0.058663 -0.073176 0.167383 0.065442 0.057269 -0.028417 -0.116250 -0.068565 0.077616 0.025852 0.101520 0.099842 -0.102614 -0.206804 0.233206 -0.045501 -0.017380 0.126652 0.036688 -0.053998 0.138393 0.123375 0.065360 -0.018245 -0.279987 -0.016992 0.091026 -0.032884 -0.047983 0.133588 -0.002975 0.171344 0.034109 0.196051 0.091762 -0.027993 -0.012789 -0.004123 0.111131 -0.011196 -0.163332 0.108147 -0.208376 -0.090999 0.049157 -0.147452 0.027906 0.066847 0.047463 0.118894 0.007380 -0.010107 0.071773 0.044229 -0.095158 -0.071784 0.167166 -0.308503 0.148243 -0.116396 -0.125894 0.095334 -0.098478 -0.255779 -0.015553 0.204880 0.008477 -0.001239 -0.173233 0.287365 -0.296989 -0.062187 0.038707 0.164034 0.008718 0.021674 0.027445 0.198898 0.021193 0.017753 -0.018675 -0.065363 0.149814 0.019136 -0.009750 0.025676 0.099167 0.124870 0.018990 -0.040938 0.199917 -0.086227 0.149303 0.043070 -0.123171 -0.050686 0.304026 0.134534 -0.258066 0.070117 0.089934 0.151437 -0.044209 -0.048341 -0.186352 0.029805 0.038925 0.059512 -0.076483 0.083957 -0.007888 -0.059791 0.029949 -0.133140 0.018051 0.128214 0.095579 0.129229 -0.139717 0.054472 -0.053275 0.019855 0.246497 -0.254303 0.021546 0.017214 0.053035 -0.097933 0.019851 -0.137613 -0.082863 -0.109430 -0.138629 0.004546 -0.140149 -0.022364 0.043894 0.031048 0.059297 0.082410 0.052647 -0.007564 0.033256 -0.072963 -0.228390 0.075214 0.147040 -0.150160 -0.046314 0.261395 0.013691 -0.151390 -0.065972 0.109303 0.035468 -0.172261 -0.008491 0.065649 -0.039675 -0.216879 -0.017962 0.015574 -0.012620 0.231027 -0.122660 -0.092641 0.258072 -0.148051 -0.074960 0.063128 0.095173 -0.001666 0.065164 -0.131956 -0.034114 0.092835 0.059782 -0.194398 0.091973 0.054978 -0.071843 
on -0.136434 -0.214151 0.256621 -0.228150 0.236813 -0.451811 -0.284745 -0.075843 0.095455 -0.146364 -0.165695 0.042436 -0.108905 -0.244753 0.151338 -0.026771 0.174669 0.236331 0.134080 -0.097095 -0.121654 0.276239 0.108171 0.099711 -0.043935 -0.193878 -0.113623 0.131671 0.041296 0.168994 0.166242 -0.170391 -0.341725 0.395775 -0.080294 -0.027789 0.214568 0.058756 -0.089539 0.230235 0.203757 0.111452 -0.033140 -0.467097 -0.027858 0.153622 -0.059136 -0.081083 0.222425 -0.007190 0.281991 0.059046 0.327422 0.149958 -0.054094 -0.024174 -0.009481 0.190543 -0.018471 -0.275629 0.179569 -0.348447 -0.146069 0.081714 -0.245525 0.045636 0.109578 0.080573 0.200288 0.009707 -0.020765 0.120924 0.074748 -0.156490 -0.123465 0.279554 -0.513943 0.247985 -0.199155 -0.214353 0.156134 -0.159758 -0.430296 -0.023572 0.349779 0.010563 -0.005333 -0.289952 0.485759 -0.498754 -0.098728 0.066221 0.278362 0.011871 0.043510 0.052595 0.331780 0.032289 0.028630 -0.032647 -0.110937 0.249533 0.031721 -0.014124 0.044299 0.163589 0.204797 0.026579 -0.062873 0.337864 -0.147486 0.253798 0.076124 -0.208166 -0.085097 0.502699 0.220883 -0.433527 0.117863 0.145279 0.252376 -0.072756 -0.084812 -0.312602 0.046741 0.062221 0.096826 -0.131213 0.146120 -0.011125 -0.105843 0.050044 -0.223874 0.030209 0.218338 0.156409 0.219275 -0.231743 0.092770 -0.090800 0.034701 0.414964 -0.421654 0.034891 0.030057 0.092867 -0.165029 0.032570 -0.233565 -0.133012 -0.184312 -0.229295 0.007313 -0.238507 -0.036084 0.067656 0.053839 0.099222 0.135996 0.088541 -0.012550 0.057209 -0.117687 -0.376191 0.124402 0.245322 -0.251859 -0.073706 0.440850 0.026160 -0.254624 -0.108702 0.187044 0.054840 -0.283528 -0.016603 0.112963 -0.066477 -0.361618 -0.031275 0.029305 -0.022770 0.387321 -0.201679 -0.154266 0.430242 -0.247417 -0.127117 0.101608 0.155633 -0.004710 0.106695 -0.215279 -0.058969 0.154605 0.098580 -0.326557 0.147740 0.096666 -0.118824 
are -0.058660 -0.091723 0.108294 -0.098228 0.099205 -0.190393 -0.122631 -0.034190 0.038125 -0.062389 -0.070326 0.018525 -0.045442 -0.104483 0.067606 -0.008551 0.075082 0.099736 0.055773 -0.041241 -0.052688 0.117404 0.049177 0.041582 -0.020291 -0.083753 -0.051465 0.055417 0.018721 0.070911 0.070652 -0.071791 -0.146045 0.169040 -0.032036 -0.012080 0.091759 0.023842 -0.039692 0.098522 0.086733 0.050255 -0.013951 -0.197082 -0.011425 0.065040 -0.024826 -0.034010 0.093012 -0.000790 0.121774 0.022818 0.139144 0.062210 -0.019879 -0.007932 -0.003998 0.078262 -0.006097 -0.117869 0.074266 -0.150446 -0.063565 0.032487 -0.104515 0.019342 0.047774 0.036352 0.084132 0.000621 -0.010791 0.050588 0.034237 -0.066792 -0.051532 0.118237 -0.216705 0.105053 -0.086857 -0.089977 0.065477 -0.067819 -0.179774 -0.010645 0.146651 0.006080 -0.002882 -0.123008 0.205330 -0.209027 -0.042654 0.026597 0.118753 0.007216 0.014516 0.019942 0.140350 0.014975 0.013178 -0.013926 -0.046163 0.105657 0.012485 -0.007384 0.016370 0.071455 0.088253 0.015098 -0.024949 0.144686 -0.062263 0.108812 0.032187 -0.088849 -0.035859 0.213946 0.094742 -0.184720 0.048963 0.064003 0.103088 -0.030113 -0.037025 -0.129886 0.021130 0.028106 0.039732 -0.053378 0.062327 -0.004742 -0.041658 0.021888 -0.093042 0.014597 0.091049 0.066823 0.093036 -0.096435 0.038867 -0.040687 0.013339 0.176688 -0.179064 0.013642 0.013285 0.040914 -0.069207 0.012764 -0.096779 -0.058556 -0.074611 -0.099967 0.003168 -0.101560 -0.018481 0.030426 0.022554 0.044111 0.060158 0.036984 -0.004218 0.026541 -0.051593 -0.158847 0.052273 0.105060 -0.107690 -0.030035 0.184556 0.012173 -0.106306 -0.046312 0.078328 0.024296 -0.118881 -0.008497 0.044492 -0.029653 -0.153416 -0.016192 0.011703 -0.009790 0.163139 -0.083776 -0.067644 0.181547 -0.103016 -0.052217 0.042205 0.064134 -0.003288 0.045435 -0.093564 -0.025816 0.066067 0.042363 -0.138116 0.064627 0.040221 -0.049254 
And -0.086421 -0.135140 0.161992 -0.145502 0.150585 -0.280183 -0.181950 -0.050334 0.058269 -0.091377 -0.100637 0.024872 -0.065688 -0.156015 0.098101 -0.015045 0.112259 0.147195 0.081823 -0.058094 -0.078171 0.171753 0.067009 0.060791 -0.026397 -0.122351 -0.075010 0.080888 0.026108 0.107798 0.101754 -0.103956 -0.217217 0.247487 -0.050013 -0.019363 0.133706 0.037723 -0.057106 0.146300 0.129896 0.070390 -0.018580 -0.296669 -0.018281 0.097687 -0.036861 -0.053866 0.137432 -0.004424 0.179752 0.037267 0.205289 0.096870 -0.033165 -0.016992 -0.001997 0.119261 -0.010831 -0.172404 0.110956 -0.215832 -0.095396 0.048505 -0.151505 0.028383 0.069219 0.050639 0.127694 0.004988 -0.010363 0.077319 0.047087 -0.100951 -0.076551 0.179116 -0.322002 0.154717 -0.121577 -0.132989 0.093923 -0.105082 -0.273519 -0.013174 0.216506 0.007488 -0.003290 -0.183784 0.303090 -0.312677 -0.064615 0.037438 0.172178 0.006209 0.026392 0.029862 0.208390 0.020119 0.013902 -0.023485 -0.071691 0.154105 0.020002 -0.007276 0.027892 0.105536 0.129114 0.015953 -0.042893 0.209714 -0.091577 0.159977 0.046900 -0.130429 -0.055732 0.319091 0.136883 -0.272959 0.072053 0.093723 0.159861 -0.044516 -0.052572 -0.192997 0.028988 0.041113 0.062967 -0.082362 0.090829 -0.009638 -0.065794 0.030392 -0.136812 0.018278 0.139381 0.097876 0.135482 -0.147709 0.060103 -0.054519 0.025806 0.260468 -0.266160 0.023536 0.017542 0.061384 -0.104679 0.021411 -0.147969 -0.085715 -0.116222 -0.146929 0.004474 -0.147646 -0.025231 0.042193 0.034943 0.061805 0.086398 0.056494 -0.010055 0.038757 -0.078242 -0.239138 0.077930 0.153440 -0.157092 -0.045135 0.280359 0.016116 -0.162161 -0.067998 0.117620 0.032918 -0.176942 -0.010565 0.070432 -0.042960 -0.227709 -0.021261 0.019940 -0.013283 0.246733 -0.130403 -0.097257 0.272330 -0.153121 -0.076806 0.067305 0.095204 -0.005856 0.067494 -0.136202 -0.038381 0.096813 0.066336 -0.205511 0.094323 0.058147 -0.070583 
for -0.067723 -0.107118 0.128543 -0.112906 0.117472 -0.226259 -0.144550 -0.040501 0.046281 -0.074036 -0.084243 0.020559 -0.050543 -0.123331 0.074311 -0.013302 0.091006 0.115368 0.067632 -0.047910 -0.062030 0.139331 0.057219 0.046592 -0.022598 -0.093266 -0.058926 0.065534 0.020301 0.084606 0.082544 -0.085062 -0.171437 0.192444 -0.040490 -0.015519 0.105276 0.027933 -0.044711 0.114320 0.102220 0.057864 -0.017281 -0.234782 -0.013679 0.077649 -0.024679 -0.038613 0.111182 -0.002455 0.139949 0.028511 0.163571 0.072526 -0.026568 -0.011312 -0.004056 0.092279 -0.005970 -0.134689 0.086593 -0.170828 -0.071124 0.040852 -0.122795 0.025064 0.057378 0.042253 0.097817 0.005968 -0.007534 0.058175 0.039602 -0.078565 -0.061702 0.136486 -0.254140 0.122886 -0.099107 -0.105307 0.077003 -0.080690 -0.215529 -0.008752 0.174579 0.004472 -0.004006 -0.145875 0.239206 -0.250076 -0.048336 0.030639 0.135075 0.004789 0.017700 0.027267 0.162729 0.016383 0.011530 -0.013849 -0.058196 0.126359 0.017245 -0.004852 0.021941 0.084176 0.103243 0.012488 -0.034497 0.167431 -0.073707 0.127043 0.037057 -0.103348 -0.044748 0.252311 0.108095 -0.213917 0.060237 0.072531 0.124506 -0.034047 -0.042086 -0.156332 0.021102 0.033053 0.049779 -0.064992 0.069099 -0.006525 -0.050663 0.025391 -0.111659 0.016934 0.105999 0.080934 0.109954 -0.117079 0.045094 -0.043506 0.019779 0.208067 -0.208510 0.015073 0.013431 0.044448 -0.084271 0.018539 -0.118958 -0.067725 -0.092326 -0.113576 0.005085 -0.117091 -0.019414 0.034171 0.024775 0.050353 0.064472 0.045524 -0.008285 0.028935 -0.057612 -0.190398 0.059845 0.122015 -0.123324 -0.037304 0.218189 0.010850 -0.125431 -0.054799 0.090698 0.028390 -0.140310 -0.004969 0.056254 -0.031517 -0.182329 -0.018443 0.016193 -0.007881 0.194392 -0.101752 -0.077529 0.215269 -0.124230 -0.059498 0.049946 0.076674 -0.000515 0.055410 -0.108258 -0.030255 0.080005 0.048101 -0.162722 0.072749 0.046407 -0.059325 
I'm -0.038100 -0.057162 0.072127 -0.063235 0.068495 -0.124037 -0.079685 -0.024223 0.027342 -0.037693 -0.046464 0.012847 -0.030739 -0.068824 0.040532 -0.008984 0.049891 0.063276 0.036886 -0.026077 -0.034104 0.075286 0.029472 0.029305 -0.013221 -0.054514 -0.031754 0.035854 0.012088 0.047401 0.046240 -0.048892 -0.097802 0.109566 -0.022760 -0.005410 0.060693 0.014568 -0.025050 0.063544 0.058970 0.028889 -0.009651 -0.128215 -0.010215 0.043840 -0.013579 -0.023271 0.063757 -0.002800 0.077186 0.017000 0.092643 0.042444 -0.015004 -0.007112 -0.002343 0.053895 -0.002472 -0.078570 0.050938 -0.095612 -0.043459 0.021735 -0.067860 0.010959 0.030225 0.023427 0.055379 0.002214 -0.006510 0.032334 0.019496 -0.045927 -0.031065 0.076053 -0.140895 0.070906 -0.056777 -0.057148 0.042747 -0.046965 -0.119199 -0.008426 0.093803 0.005546 -0.000442 -0.082161 0.135225 -0.141329 -0.027361 0.014742 0.074742 0.004323 0.009770 0.012664 0.094184 0.008511 0.004988 -0.008127 -0.032636 0.070654 0.009582 -0.005699 0.011274 0.047385 0.059856 0.009299 -0.017000 0.094135 -0.042470 0.071557 0.017779 -0.055967 -0.023387 0.141186 0.060805 -0.122395 0.035002 0.041302 0.067126 -0.021627 -0.020207 -0.087964 0.013628 0.018610 0.029141 -0.036913 0.040532 -0.003782 -0.029860 0.012479 -0.062908 0.009918 0.060890 0.044243 0.061638 -0.065013 0.025967 -0.023896 0.010609 0.114541 -0.116476 0.011176 0.008382 0.024830 -0.048460 0.010536 -0.063377 -0.035213 -0.050256 -0.066066 0.002105 -0.067061 -0.008917 0.021589 0.017569 0.025971 0.036766 0.025164 -0.004892 0.015274 -0.035897 -0.104288 0.032671 0.068820 -0.068064 -0.022485 0.121049 0.008404 -0.069440 -0.028431 0.052047 0.017021 -0.078126 -0.005053 0.030072 -0.018142 -0.102777 -0.011976 0.007901 -0.004633 0.109362 -0.054641 -0.040613 0.121635 -0.068414 -0.032976 0.028147 0.043650 -0.003362 0.028093 -0.057696 -0.018922 0.042917 0.029491 -0.091427 0.040134 0.028732 -0.034519 
all -0.084111 -0.127933 0.156760 -0.140492 0.145684 -0.276456 -0.175632 -0.050413 0.055126 -0.086935 -0.099954 0.025562 -0.063451 -0.150757 0.093584 -0.012944 0.107354 0.143263 0.081420 -0.055602 -0.076832 0.171159 0.068256 0.057653 -0.024375 -0.115869 -0.071213 0.081809 0.025285 0.105401 0.102065 -0.104665 -0.210679 0.241381 -0.045733 -0.017444 0.132222 0.034008 -0.056880 0.138443 0.127279 0.069611 -0.023417 -0.284967 -0.016069 0.094015 -0.031297 -0.050092 0.137634 -0.001579 0.175336 0.034346 0.202477 0.093499 -0.031790 -0.016499 -0.003893 0.118454 -0.007351 -0.167135 0.108147 -0.210450 -0.090001 0.050210 -0.147830 0.028182 0.069625 0.049321 0.124102 0.003642 -0.014069 0.075097 0.049615 -0.096294 -0.071307 0.172584 -0.313066 0.152889 -0.119746 -0.132281 0.094775 -0.101319 -0.264801 -0.014646 0.209945 0.007246 -0.006086 -0.175720 0.294037 -0.305867 -0.059092 0.038467 0.169686 0.004202 0.023144 0.031427 0.201660 0.019308 0.012552 -0.016726 -0.071411 0.149090 0.019348 -0.009210 0.026688 0.099190 0.123479 0.017713 -0.036555 0.205469 -0.090765 0.151984 0.043038 -0.128208 -0.050548 0.308110 0.132911 -0.262665 0.069333 0.091562 0.151044 -0.045624 -0.050044 -0.188362 0.025457 0.041781 0.058919 -0.080822 0.085912 -0.007601 -0.063941 0.033759 -0.134210 0.020417 0.132873 0.096340 0.134062 -0.141025 0.053191 -0.056386 0.024545 0.252906 -0.258995 0.021179 0.013732 0.059115 -0.103437 0.024294 -0.144888 -0.079738 -0.109639 -0.138113 0.004433 -0.140966 -0.023442 0.041679 0.032136 0.061834 0.080726 0.053165 -0.005410 0.037712 -0.071459 -0.229213 0.076931 0.146603 -0.152294 -0.044558 0.270519 0.016892 -0.155598 -0.066560 0.114402 0.031321 -0.172114 -0.010956 0.070549 -0.040073 -0.219078 -0.019487 0.021540 -0.013581 0.234538 -0.123234 -0.093433 0.262104 -0.150799 -0.077220 0.063672 0.093289 -0.001588 0.065190 -0.130062 -0.034535 0.097699 0.061230 -0.199238 0.090259 0.060126 -0.072602 
like -0.035516 -0.057207 0.068964 -0.064475 0.065376 -0.121655 -0.074778 -0.023401 0.027002 -0.041412 -0.045058 0.012305 -0.026846 -0.067595 0.043122 -0.007399 0.048979 0.065646 0.037376 -0.027762 -0.034583 0.075023 0.030162 0.025802 -0.010112 -0.049994 -0.031201 0.033020 0.013209 0.045894 0.045838 -0.046951 -0.095370 0.105758 -0.023716 -0.005752 0.058912 0.017152 -0.023890 0.062140 0.057119 0.030041 -0.009596 -0.128579 -0.005316 0.040305 -0.016547 -0.022591 0.061774 -0.003476 0.077237 0.016949 0.090774 0.040347 -0.016009 -0.004719 -0.000857 0.051481 -0.002663 -0.076567 0.047823 -0.096361 -0.039514 0.021862 -0.067159 0.011106 0.028737 0.024406 0.055533 0.004194 -0.003070 0.031060 0.022416 -0.043066 -0.030728 0.078391 -0.141739 0.064749 -0.056056 -0.055904 0.040361 -0.045677 -0.114663 -0.006022 0.093343 0.003387 -0.002688 -0.078065 0.132283 -0.132819 -0.026219 0.017033 0.076813 0.004704 0.010342 0.011979 0.090285 0.009080 0.009014 -0.009506 -0.028926 0.068330 0.010665 -0.001135 0.013515 0.043710 0.059131 0.009647 -0.019808 0.091118 -0.038919 0.068959 0.019789 -0.059419 -0.020921 0.138016 0.057154 -0.118001 0.033633 0.041183 0.069442 -0.020369 -0.019837 -0.086326 0.013453 0.016471 0.026992 -0.036903 0.041762 -0.002442 -0.029179 0.012221 -0.062556 0.007460 0.057590 0.041224 0.061353 -0.060318 0.025647 -0.025189 0.009158 0.114503 -0.114045 0.009837 0.009860 0.025706 -0.045290 0.006658 -0.062080 -0.034404 -0.046581 -0.064311 -0.000538 -0.064008 -0.008471 0.016908 0.013737 0.027309 0.036309 0.023020 -0.003739 0.017391 -0.035187 -0.103881 0.032758 0.067826 -0.070067 -0.018937 0.118084 0.007556 -0.067093 -0.027523 0.051401 0.012461 -0.078577 -0.006276 0.030090 -0.019964 -0.097717 -0.007682 0.008249 -0.006629 0.107016 -0.053475 -0.042175 0.115576 -0.067111 -0.033858 0.026017 0.042265 0.000328 0.031332 -0.056110 -0.015560 0.041729 0.028397 -0.087919 0.038897 0.026447 -0.030903 
now -0.057888 -0.084787 0.105587 -0.090732 0.099878 -0.185621 -0.117173 -0.030843 0.041105 -0.059222 -0.069506 0.018091 -0.044589 -0.100931 0.059936 -0.007963 0.073146 0.093079 0.054409 -0.041665 -0.052864 0.113210 0.046677 0.040553 -0.018082 -0.079032 -0.048442 0.052643 0.019933 0.068447 0.070118 -0.067667 -0.138948 0.163656 -0.029404 -0.012839 0.087283 0.025744 -0.039969 0.095358 0.084462 0.046066 -0.013132 -0.193032 -0.012206 0.062420 -0.019751 -0.034240 0.093100 -0.001773 0.114673 0.020323 0.138515 0.060083 -0.022363 -0.008436 -0.005546 0.080606 -0.004375 -0.113834 0.072998 -0.145496 -0.061738 0.031149 -0.101932 0.021903 0.047867 0.034400 0.083783 0.003997 -0.009158 0.046948 0.031221 -0.064533 -0.050393 0.117309 -0.211607 0.100041 -0.082655 -0.085306 0.063225 -0.063869 -0.178640 -0.010648 0.144859 0.006225 -0.003327 -0.121109 0.200109 -0.207432 -0.038824 0.026757 0.116240 0.006287 0.016955 0.017912 0.136425 0.015242 0.009854 -0.011843 -0.047938 0.105890 0.011177 -0.004862 0.019738 0.066472 0.086380 0.012983 -0.028432 0.139482 -0.060826 0.105385 0.031926 -0.087537 -0.037052 0.209489 0.093214 -0.179216 0.044979 0.057366 0.103205 -0.030552 -0.033367 -0.129987 0.019320 0.026320 0.038952 -0.055258 0.056315 -0.007025 -0.042410 0.023945 -0.088317 0.011676 0.090715 0.065557 0.090593 -0.094392 0.037994 -0.038568 0.015186 0.170159 -0.171596 0.011381 0.010053 0.035585 -0.069121 0.015678 -0.098044 -0.056243 -0.076725 -0.096492 0.001378 -0.098355 -0.013980 0.027894 0.019948 0.043070 0.055714 0.036177 -0.003302 0.023772 -0.045802 -0.156277 0.050927 0.099441 -0.103104 -0.029235 0.181767 0.007947 -0.107587 -0.044248 0.076758 0.023325 -0.119541 -0.005398 0.048958 -0.024563 -0.150656 -0.011658 0.011331 -0.009499 0.163009 -0.082719 -0.064517 0.173390 -0.100406 -0.051545 0.044078 0.066189 -0.001283 0.043758 -0.089671 -0.022561 0.062742 0.040043 -0.134483 0.058883 0.036804 -0.047575 
what -0.061899 -0.096586 0.111478 -0.100976 0.107620 -0.199231 -0.125927 -0.034941 0.043112 -0.064438 -0.073029 0.017297 -0.046937 -0.111763 0.067132 -0.012444 0.077575 0.103561 0.061938 -0.046285 -0.053773 0.125319 0.046811 0.041109 -0.021635 -0.083050 -0.048792 0.056352 0.017346 0.078029 0.072845 -0.076333 -0.152789 0.172445 -0.032899 -0.010747 0.093254 0.025558 -0.039000 0.103981 0.089789 0.053221 -0.013682 -0.210887 -0.009559 0.068000 -0.025973 -0.036781 0.096048 -0.000179 0.127661 0.028156 0.146039 0.067434 -0.025790 -0.010507 -0.001634 0.086232 -0.008388 -0.121225 0.081126 -0.155988 -0.062905 0.035057 -0.109327 0.024447 0.052626 0.035657 0.089374 0.002573 -0.007349 0.052579 0.033206 -0.071122 -0.054922 0.123607 -0.230596 0.108517 -0.087058 -0.093999 0.066179 -0.074465 -0.193819 -0.011798 0.153785 0.003470 -0.001593 -0.130395 0.215353 -0.222991 -0.041571 0.028623 0.124045 0.005936 0.016597 0.025514 0.146245 0.015763 0.012198 -0.015411 -0.048477 0.113030 0.011510 -0.007233 0.016611 0.072105 0.091175 0.014221 -0.029106 0.147168 -0.063667 0.111462 0.031872 -0.094884 -0.039364 0.224840 0.096161 -0.190194 0.054148 0.064654 0.111247 -0.030365 -0.037082 -0.137737 0.022550 0.030882 0.044436 -0.056012 0.064844 -0.003387 -0.043709 0.022022 -0.100056 0.011154 0.094940 0.069734 0.099835 -0.104924 0.038205 -0.039976 0.014428 0.183789 -0.189683 0.013634 0.011921 0.043566 -0.072850 0.014460 -0.106363 -0.057814 -0.080520 -0.101615 0.002931 -0.106235 -0.017373 0.028826 0.025037 0.045604 0.059515 0.042182 -0.004977 0.023964 -0.051740 -0.166234 0.057002 0.106605 -0.112965 -0.031605 0.199475 0.013689 -0.114684 -0.048293 0.083234 0.021964 -0.128425 -0.006542 0.051083 -0.028450 -0.159158 -0.013730 0.012250 -0.006240 0.175306 -0.091089 -0.068253 0.189684 -0.106930 -0.053371 0.047358 0.068535 -0.003391 0.047615 -0.097846 -0.028882 0.068356 0.045662 -0.144879 0.064788 0.042143 -0.052313 
not -0.052473 -0.085306 0.100059 -0.088157 0.093028 -0.176283 -0.115151 -0.032701 0.035268 -0.059457 -0.064934 0.013313 -0.042729 -0.095410 0.061834 -0.011137 0.070645 0.090284 0.055254 -0.036596 -0.046162 0.107359 0.044320 0.035979 -0.016852 -0.078262 -0.047232 0.053082 0.015104 0.069985 0.064224 -0.066991 -0.137882 0.155931 -0.031723 -0.010409 0.087305 0.021535 -0.037691 0.089245 0.081097 0.043225 -0.011093 -0.183496 -0.010206 0.061019 -0.023717 -0.032346 0.088295 -0.000882 0.113221 0.020748 0.129247 0.058467 -0.019456 -0.012436 -0.000857 0.076507 -0.005170 -0.110613 0.072368 -0.137686 -0.059307 0.033237 -0.097699 0.020182 0.043657 0.032238 0.080293 0.003032 -0.009937 0.047445 0.032549 -0.062917 -0.045990 0.112912 -0.201330 0.100897 -0.080631 -0.081939 0.062632 -0.065933 -0.169079 -0.007676 0.136818 0.004792 -0.003785 -0.115574 0.190562 -0.199363 -0.037562 0.027221 0.109415 0.006767 0.013420 0.020423 0.131047 0.014129 0.012156 -0.011207 -0.044844 0.099204 0.012444 -0.004203 0.016154 0.064102 0.079827 0.009622 -0.027380 0.131033 -0.056940 0.101840 0.027108 -0.081704 -0.032961 0.201266 0.088695 -0.170147 0.046282 0.056728 0.101262 -0.028465 -0.032576 -0.121161 0.018990 0.023730 0.037985 -0.050618 0.058434 -0.005965 -0.043621 0.020370 -0.088434 0.012030 0.086018 0.063750 0.088432 -0.089958 0.033596 -0.032824 0.014755 0.164042 -0.166841 0.016427 0.010505 0.038167 -0.063385 0.016308 -0.094496 -0.054329 -0.073613 -0.092510 0.002479 -0.092349 -0.013456 0.026913 0.020761 0.037258 0.052236 0.037144 -0.007667 0.024565 -0.047285 -0.150753 0.047435 0.094824 -0.097897 -0.028308 0.175949 0.010849 -0.101254 -0.041180 0.076283 0.020606 -0.113541 -0.006659 0.045581 -0.025144 -0.141745 -0.012494 0.012467 -0.005451 0.154369 -0.080424 -0.062132 0.170287 -0.096427 -0.047566 0.039815 0.063143 -0.000754 0.043384 -0.085139 -0.025515 0.063316 0.041596 -0.129673 0.060380 0.034820 -0.046900 
We -0.045044 -0.066164 0.080898 -0.073779 0.075220 -0.144778 -0.090339 -0.026339 0.028419 -0.045666 -0.053455 0.012832 -0.034892 -0.078728 0.047537 -0.010788 0.058340 0.070666 0.045331 -0.027381 -0.038910 0.087265 0.035538 0.030625 -0.017077 -0.060775 -0.035327 0.038533 0.011765 0.051023 0.053370 -0.055647 -0.104376 0.124440 -0.025737 -0.006667 0.064518 0.017736 -0.029945 0.072008 0.065586 0.033614 -0.011278 -0.146748 -0.006622 0.048345 -0.016014 -0.028304 0.069616 -0.000400 0.091013 0.016068 0.102658 0.050513 -0.017010 -0.005686 -0.001391 0.058418 -0.002056 -0.089654 0.056352 -0.111872 -0.043764 0.023340 -0.075186 0.015872 0.035582 0.028015 0.063959 0.004597 -0.005044 0.039999 0.024212 -0.049366 -0.034889 0.086354 -0.161630 0.080567 -0.060258 -0.068584 0.048009 -0.053394 -0.136478 -0.005331 0.109746 0.001875 -0.002342 -0.092645 0.149996 -0.158907 -0.030328 0.018443 0.088130 0.001407 0.013970 0.016279 0.103785 0.011175 0.006670 -0.012228 -0.036729 0.075996 0.010431 -0.003448 0.010845 0.052451 0.062925 0.006752 -0.022985 0.105744 -0.046941 0.081172 0.023614 -0.067496 -0.027727 0.159173 0.071024 -0.136054 0.033851 0.044660 0.080507 -0.021340 -0.027409 -0.096032 0.017005 0.023727 0.032394 -0.041144 0.045578 -0.007756 -0.031263 0.016872 -0.071669 0.007500 0.072234 0.050434 0.069432 -0.070872 0.031320 -0.030800 0.014270 0.129122 -0.133161 0.012082 0.007327 0.027756 -0.056180 0.012391 -0.075534 -0.043697 -0.057573 -0.072185 0.003455 -0.075965 -0.014019 0.021837 0.014427 0.031738 0.044046 0.027434 -0.003743 0.018246 -0.038046 -0.117645 0.041686 0.078160 -0.082460 -0.019972 0.138841 0.009258 -0.082395 -0.033762 0.059241 0.018689 -0.092359 -0.001667 0.034657 -0.017270 -0.116009 -0.011075 0.010002 -0.003442 0.119916 -0.060773 -0.048837 0.135022 -0.076000 -0.038466 0.032779 0.051049 -0.003073 0.034785 -0.067469 -0.018619 0.051375 0.033116 -0.099867 0.046842 0.030642 -0.036609 
don't -0.057492 -0.089809 0.102322 -0.095641 0.099223 -0.187999 -0.119388 -0.032718 0.038606 -0.059723 -0.066031 0.015401 -0.042083 -0.101841 0.062735 -0.009961 0.072425 0.095954 0.057482 -0.043000 -0.047825 0.111969 0.043570 0.037049 -0.016656 -0.078276 -0.050259 0.051261 0.019765 0.072566 0.070010 -0.069351 -0.142379 0.161538 -0.032721 -0.011366 0.088250 0.021684 -0.039852 0.094177 0.084295 0.049164 -0.015198 -0.193740 -0.011370 0.063997 -0.023497 -0.031763 0.088552 -0.003146 0.117662 0.025035 0.135588 0.060261 -0.020773 -0.011467 0.000146 0.077276 -0.004974 -0.116308 0.076168 -0.145932 -0.061170 0.034938 -0.102787 0.022067 0.045812 0.035970 0.083071 0.001523 -0.008453 0.049272 0.034100 -0.065859 -0.052283 0.118030 -0.209520 0.105164 -0.078912 -0.088987 0.061604 -0.069348 -0.176400 -0.007589 0.144886 0.000926 0.000363 -0.119387 0.196686 -0.207105 -0.039316 0.023876 0.115867 0.002361 0.018116 0.021765 0.133400 0.016858 0.013039 -0.013455 -0.046132 0.104981 0.012605 -0.003373 0.015664 0.066279 0.085304 0.013430 -0.027242 0.139643 -0.057281 0.102437 0.029330 -0.085671 -0.035492 0.206333 0.090839 -0.175754 0.049095 0.059058 0.102661 -0.028876 -0.034350 -0.126834 0.022727 0.029939 0.039750 -0.052508 0.057536 -0.003621 -0.044254 0.021696 -0.089958 0.011869 0.092509 0.065237 0.089471 -0.097371 0.037356 -0.035248 0.013296 0.171074 -0.173087 0.012663 0.008952 0.039665 -0.072135 0.015371 -0.098512 -0.057520 -0.072898 -0.097400 0.004711 -0.094925 -0.015347 0.028923 0.020123 0.041870 0.059118 0.038745 -0.007375 0.024661 -0.048768 -0.152347 0.053010 0.101394 -0.102376 -0.028775 0.184314 0.013142 -0.107919 -0.046620 0.079103 0.020925 -0.116681 -0.005438 0.046266 -0.023872 -0.147045 -0.011861 0.015493 -0.008175 0.161752 -0.084919 -0.063715 0.178930 -0.100873 -0.051079 0.042133 0.061312 0.001207 0.043006 -0.089194 -0.027757 0.065841 0.043242 -0.134980 0.065232 0.038695 -0.050948 
So -0.049722 -0.077079 0.088573 -0.078127 0.085143 -0.158733 -0.101143 -0.029016 0.034955 -0.048830 -0.058873 0.013008 -0.036777 -0.086901 0.052240 -0.007239 0.063833 0.084762 0.050103 -0.032885 -0.042005 0.097611 0.038292 0.032195 -0.013223 -0.068865 -0.040558 0.046019 0.016031 0.063500 0.060443 -0.059338 -0.119750 0.140132 -0.025269 -0.011953 0.076228 0.022146 -0.030302 0.081033 0.075238 0.041199 -0.011978 -0.163990 -0.009154 0.053915 -0.022540 -0.028577 0.078311 -0.002116 0.102853 0.020725 0.115014 0.053062 -0.018427 -0.010281 -0.004951 0.068364 -0.008252 -0.095668 0.065982 -0.122324 -0.053768 0.029509 -0.087371 0.017240 0.036953 0.028060 0.070728 0.004858 -0.007017 0.043870 0.026395 -0.057272 -0.044970 0.100431 -0.181708 0.086248 -0.069884 -0.073459 0.057667 -0.054896 -0.153363 -0.007847 0.123686 0.004350 -0.003586 -0.102107 0.171331 -0.176735 -0.033146 0.022806 0.097866 0.003202 0.015268 0.020393 0.115189 0.011954 0.011067 -0.014522 -0.040213 0.089087 0.009074 -0.006096 0.016935 0.059026 0.071995 0.012345 -0.022110 0.119685 -0.050982 0.088916 0.026547 -0.075182 -0.030711 0.180962 0.075890 -0.154752 0.040982 0.052084 0.091447 -0.026641 -0.029835 -0.111644 0.019356 0.024632 0.034254 -0.045169 0.053128 -0.005641 -0.038196 0.021388 -0.078907 0.009654 0.074883 0.054727 0.076650 -0.081038 0.029930 -0.032185 0.012993 0.150100 -0.150627 0.009703 0.009740 0.032017 -0.060835 0.012556 -0.082194 -0.046449 -0.066448 -0.080899 0.002475 -0.081840 -0.013692 0.024723 0.019571 0.033184 0.050062 0.031607 -0.004402 0.021700 -0.043620 -0.135659 0.044349 0.087907 -0.088735 -0.026450 0.158541 0.010553 -0.091165 -0.039934 0.068150 0.017577 -0.101228 -0.007292 0.037856 -0.024668 -0.129624 -0.011952 0.008766 -0.009827 0.138526 -0.074456 -0.056665 0.150813 -0.090129 -0.046458 0.034642 0.052964 0.000196 0.039750 -0.077296 -0.023196 0.055721 0.038264 -0.114201 0.054851 0.034640 -0.044081 
be -0.051949 -0.078847 0.093666 -0.083692 0.090335 -0.168637 -0.106844 -0.028893 0.032867 -0.056177 -0.064120 0.015413 -0.037865 -0.092174 0.056720 -0.007694 0.067128 0.085600 0.047603 -0.034066 -0.042357 0.105333 0.040210 0.034592 -0.016253 -0.072454 -0.041213 0.049831 0.018189 0.065442 0.061755 -0.059902 -0.128816 0.143418 -0.027527 -0.013063 0.077685 0.022664 -0.034379 0.083459 0.073552 0.042577 -0.012700 -0.174369 -0.009331 0.054339 -0.018553 -0.027456 0.081943 -0.002341 0.106366 0.019144 0.122944 0.055955 -0.019272 -0.011351 -0.003367 0.068715 -0.006344 -0.103823 0.064732 -0.127769 -0.053386 0.027233 -0.089032 0.017939 0.042725 0.032080 0.074414 0.002623 -0.007675 0.044309 0.026528 -0.059856 -0.045297 0.102180 -0.189755 0.089281 -0.071086 -0.080513 0.055459 -0.061488 -0.162105 -0.008645 0.128225 0.001992 -0.003754 -0.108514 0.177388 -0.187525 -0.037591 0.023946 0.102246 0.004429 0.014914 0.020185 0.122242 0.014451 0.008213 -0.009085 -0.040135 0.094480 0.013684 -0.003926 0.013635 0.059721 0.077745 0.010211 -0.024749 0.124063 -0.053370 0.094870 0.029782 -0.074528 -0.034089 0.185493 0.080999 -0.158763 0.042600 0.056285 0.091721 -0.026357 -0.032183 -0.115513 0.020519 0.022246 0.037249 -0.047235 0.052280 -0.003123 -0.038441 0.018457 -0.082755 0.008985 0.082939 0.058123 0.078723 -0.086634 0.035012 -0.031307 0.013327 0.151370 -0.155041 0.013995 0.012258 0.033268 -0.062559 0.012144 -0.086735 -0.049417 -0.068639 -0.083558 0.003552 -0.089177 -0.014560 0.026409 0.019122 0.036666 0.051396 0.033747 -0.006280 0.022498 -0.046766 -0.141474 0.046592 0.087990 -0.094218 -0.028386 0.163742 0.007615 -0.095991 -0.039581 0.067993 0.019026 -0.107187 -0.007300 0.043320 -0.023288 -0.135201 -0.010828 0.010965 -0.007649 0.145253 -0.072751 -0.054994 0.157529 -0.091717 -0.047930 0.040659 0.057643 -0.002517 0.038594 -0.080723 -0.024212 0.056958 0.036505 -0.121398 0.057494 0.035215 -0.043330 
But -0.036608 -0.056360 0.068983 -0.059926 0.063273 -0.122123 -0.076106 -0.020198 0.027223 -0.037653 -0.043041 0.010629 -0.028894 -0.066912 0.041753 -0.007573 0.045694 0.061780 0.037507 -0.024270 -0.032161 0.074916 0.029104 0.028137 -0.012358 -0.050049 -0.032824 0.035025 0.013457 0.046508 0.043886 -0.047747 -0.089926 0.103680 -0.022582 -0.008825 0.058014 0.013824 -0.024932 0.062713 0.057697 0.031333 -0.011686 -0.125941 -0.006708 0.043252 -0.012423 -0.023783 0.059103 -0.003488 0.077710 0.017702 0.087847 0.039017 -0.011496 -0.004580 -0.002025 0.049409 -0.004110 -0.075716 0.048386 -0.096550 -0.039767 0.018714 -0.066597 0.012339 0.029866 0.024402 0.055089 0.003511 -0.003744 0.035363 0.018739 -0.042682 -0.031432 0.077109 -0.136950 0.065619 -0.055849 -0.059557 0.042639 -0.042093 -0.117557 -0.006631 0.096244 0.004697 -0.003760 -0.079363 0.130874 -0.135664 -0.027100 0.015876 0.073840 0.002236 0.010513 0.012469 0.090548 0.008990 0.005858 -0.010710 -0.028244 0.065843 0.009721 -0.004061 0.010408 0.046453 0.057474 0.007273 -0.019923 0.089670 -0.038812 0.068201 0.018523 -0.057669 -0.023655 0.133858 0.060610 -0.117603 0.033392 0.037318 0.069488 -0.021196 -0.019946 -0.084201 0.010912 0.017312 0.027298 -0.032990 0.037470 -0.004893 -0.026991 0.014178 -0.060832 0.008433 0.058326 0.041592 0.058318 -0.063383 0.025533 -0.024447 0.009194 0.111159 -0.112155 0.007143 0.008689 0.025396 -0.047457 0.007050 -0.062678 -0.036715 -0.050794 -0.063880 -0.000111 -0.061171 -0.012573 0.017040 0.016532 0.025837 0.037369 0.024731 -0.002072 0.017801 -0.031771 -0.103965 0.034180 0.066650 -0.068933 -0.020333 0.120923 0.006108 -0.071671 -0.028381 0.051936 0.013271 -0.076924 -0.005833 0.029600 -0.017114 -0.098691 -0.009179 0.008217 -0.005988 0.102683 -0.055177 -0.041007 0.115488 -0.065669 -0.035679 0.030024 0.039328 -0.002913 0.030845 -0.058320 -0.016597 0.040062 0.025423 -0.089143 0.040930 0.023329 -0.029280 
we -0.109318 -0.167639 0.201154 -0.180413 0.184674 -0.350366 -0.221351 -0.061745 0.070932 -0.113634 -0.133066 0.029968 -0.083818 -0.192975 0.120054 -0.023445 0.142122 0.183309 0.106278 -0.076688 -0.092083 0.216474 0.084518 0.075096 -0.036967 -0.148410 -0.091946 0.101087 0.033862 0.132488 0.130239 -0.130562 -0.265663 0.303818 -0.061795 -0.023634 0.168578 0.043593 -0.070715 0.177207 0.161843 0.087536 -0.026783 -0.368382 -0.020389 0.122071 -0.042926 -0.061157 0.171717 -0.007538 0.221954 0.046246 0.260206 0.119239 -0.037403 -0.021349 -0.003954 0.150710 -0.009646 -0.217401 0.136785 -0.271031 -0.118314 0.063012 -0.192803 0.037405 0.086210 0.063196 0.155417 0.006204 -0.018788 0.093675 0.059747 -0.120483 -0.094812 0.218478 -0.399887 0.194172 -0.157110 -0.168187 0.122555 -0.124031 -0.334954 -0.015114 0.267703 0.006325 -0.007724 -0.230068 0.378274 -0.387199 -0.081422 0.047445 0.218078 0.007108 0.031390 0.038030 0.259315 0.024471 0.015658 -0.022924 -0.091698 0.194928 0.020960 -0.012231 0.031827 0.127235 0.163464 0.025323 -0.048369 0.261308 -0.116539 0.199700 0.058645 -0.161075 -0.065740 0.395586 0.169535 -0.333520 0.093432 0.115498 0.195503 -0.055241 -0.062137 -0.244331 0.036295 0.050884 0.074459 -0.097051 0.111463 -0.012308 -0.082325 0.042026 -0.171809 0.023670 0.171728 0.125951 0.169103 -0.181939 0.074526 -0.068022 0.026039 0.324660 -0.327855 0.027195 0.019898 0.071659 -0.132789 0.024919 -0.182352 -0.103428 -0.143436 -0.180664 0.005015 -0.185752 -0.032917 0.057796 0.040134 0.077416 0.107128 0.066501 -0.012824 0.043883 -0.091741 -0.292690 0.095808 0.187651 -0.198015 -0.057136 0.343134 0.019977 -0.199481 -0.087264 0.143158 0.043315 -0.225492 -0.010490 0.089548 -0.049865 -0.285501 -0.027506 0.025125 -0.016880 0.301184 -0.158363 -0.120213 0.335772 -0.194592 -0.095487 0.078764 0.119530 -0.002986 0.083996 -0.167185 -0.049332 0.119731 0.077831 -0.253687 0.117337 0.073018 -0.088709 
with -0.066162 -0.101907 0.119532 -0.105285 0.111579 -0.209735 -0.130840 -0.036545 0.045458 -0.069163 -0.075228 0.018109 -0.051865 -0.112379 0.070797 -0.010940 0.082457 0.110677 0.062240 -0.042607 -0.054540 0.129886 0.050377 0.041977 -0.018569 -0.088514 -0.057009 0.058351 0.018574 0.082269 0.078225 -0.078858 -0.160283 0.183088 -0.036767 -0.012694 0.097506 0.028305 -0.044341 0.105948 0.095736 0.049864 -0.013393 -0.216622 -0.011920 0.073732 -0.024968 -0.039739 0.103245 -0.001464 0.132394 0.026896 0.155427 0.068056 -0.024397 -0.014539 -0.003220 0.086622 -0.007733 -0.129960 0.081111 -0.165342 -0.070696 0.035259 -0.113688 0.020354 0.052449 0.038292 0.093562 0.002260 -0.011620 0.056259 0.035682 -0.070165 -0.055898 0.129949 -0.241391 0.117412 -0.094099 -0.100159 0.074104 -0.075071 -0.203171 -0.011826 0.163175 0.004970 -0.004100 -0.136440 0.224883 -0.231901 -0.047337 0.029654 0.126321 0.007456 0.019368 0.022703 0.155545 0.015063 0.012465 -0.017308 -0.054305 0.113815 0.014802 -0.005243 0.019969 0.078123 0.098032 0.013512 -0.029796 0.157615 -0.069123 0.117699 0.032232 -0.098630 -0.041124 0.234563 0.105018 -0.200181 0.055416 0.070741 0.116759 -0.033452 -0.036242 -0.146236 0.021072 0.031015 0.045508 -0.057641 0.069532 -0.007102 -0.050284 0.026781 -0.102068 0.012240 0.102298 0.074300 0.101744 -0.109943 0.043781 -0.039081 0.015369 0.192874 -0.194704 0.014079 0.011906 0.044023 -0.074550 0.017562 -0.110761 -0.063666 -0.086214 -0.105851 0.003724 -0.109441 -0.020575 0.032394 0.025330 0.045261 0.060590 0.040850 -0.007017 0.024723 -0.058601 -0.178434 0.056654 0.115925 -0.118661 -0.034015 0.206374 0.012443 -0.121753 -0.050469 0.088376 0.028503 -0.134364 -0.009530 0.053060 -0.028476 -0.170071 -0.014460 0.012729 -0.006926 0.182409 -0.096925 -0.069131 0.197865 -0.113391 -0.057131 0.048950 0.072854 -0.003967 0.051185 -0.099409 -0.026536 0.072331 0.047194 -0.153723 0.069856 0.043475 -0.056197 
never -0.071127 -0.112308 0.136936 -0.120839 0.125702 -0.239063 -0.153812 -0.043480 0.047830 -0.073414 -0.091360 0.022798 -0.056039 -0.129629 0.082997 -0.013723 0.096908 0.122997 0.072936 -0.051128 -0.061752 0.148355 0.059355 0.054676 -0.025299 -0.102850 -0.059682 0.066744 0.023282 0.091498 0.087093 -0.087579 -0.182256 0.206660 -0.042436 -0.012740 0.112503 0.029456 -0.048927 0.123226 0.109968 0.061375 -0.019405 -0.248679 -0.011617 0.082605 -0.030179 -0.043400 0.115101 -0.000042 0.150312 0.028592 0.171986 0.080988 -0.023693 -0.011762 -0.001976 0.100364 -0.008412 -0.147127 0.094324 -0.186763 -0.076903 0.043388 -0.129843 0.023098 0.058667 0.042934 0.103878 0.002211 -0.011709 0.066335 0.039095 -0.082200 -0.063136 0.148778 -0.271959 0.134862 -0.105600 -0.112371 0.081133 -0.087410 -0.229211 -0.010604 0.183289 0.005702 -0.002970 -0.153664 0.253305 -0.262002 -0.052890 0.034771 0.146807 0.003960 0.021528 0.024564 0.175787 0.019040 0.010575 -0.017364 -0.062068 0.132686 0.017322 -0.006472 0.024309 0.084873 0.109950 0.016524 -0.032310 0.177933 -0.075303 0.131862 0.041803 -0.111963 -0.043654 0.263228 0.113602 -0.228703 0.063567 0.080172 0.134187 -0.038250 -0.043873 -0.165128 0.025449 0.036978 0.052715 -0.065847 0.074583 -0.010420 -0.055768 0.029314 -0.118753 0.015935 0.118433 0.082378 0.114634 -0.121860 0.051667 -0.050108 0.017758 0.219179 -0.224583 0.020363 0.013405 0.051046 -0.089737 0.014671 -0.123042 -0.070153 -0.094495 -0.120102 0.005102 -0.125078 -0.019048 0.036541 0.028097 0.052102 0.073071 0.048035 -0.007128 0.029661 -0.066315 -0.200049 0.063632 0.129235 -0.134826 -0.041308 0.231799 0.014073 -0.134739 -0.056752 0.099477 0.026811 -0.148432 -0.010549 0.060304 -0.035034 -0.191787 -0.018918 0.014300 -0.008807 0.202637 -0.105928 -0.081260 0.228437 -0.129111 -0.065790 0.055798 0.084912 -0.003925 0.059700 -0.116079 -0.033307 0.081508 0.050818 -0.170338 0.081135 0.051220 -0.064653 
our -0.165456 -0.254568 0.304431 -0.270689 0.281818 -0.534431 -0.340381 -0.092948 0.111930 -0.169535 -0.201205 0.050951 -0.125484 -0.287275 0.178359 -0.028316 0.209690 0.276618 0.156971 -0.116976 -0.140981 0.328173 0.131354 0.116600 -0.050976 -0.231082 -0.139310 0.152533 0.052689 0.205177 0.198068 -0.201071 -0.403261 0.465291 -0.093682 -0.030491 0.251935 0.069294 -0.110177 0.272191 0.239503 0.131797 -0.042546 -0.555153 -0.031205 0.183595 -0.065930 -0.098122 0.260709 -0.008295 0.334479 0.072575 0.387529 0.176430 -0.062720 -0.030000 -0.009455 0.227039 -0.017805 -0.324917 0.212968 -0.414366 -0.173489 0.092164 -0.289322 0.058742 0.133415 0.097110 0.239024 0.011421 -0.024212 0.143642 0.092994 -0.187828 -0.141634 0.333853 -0.610785 0.295761 -0.233612 -0.253907 0.180408 -0.193584 -0.509277 -0.027193 0.410651 0.012261 -0.006421 -0.344071 0.571097 -0.593056 -0.117795 0.077248 0.325966 0.012545 0.050538 0.059254 0.395746 0.038959 0.032461 -0.040173 -0.132595 0.293978 0.036692 -0.016592 0.051523 0.197981 0.243200 0.032405 -0.078527 0.399594 -0.173044 0.301488 0.086590 -0.247377 -0.098040 0.600110 0.261704 -0.509680 0.138112 0.173210 0.299930 -0.086334 -0.099794 -0.368298 0.056842 0.077685 0.113425 -0.152891 0.176447 -0.016769 -0.124355 0.062644 -0.262383 0.039879 0.256966 0.187026 0.258850 -0.273293 0.105673 -0.103127 0.040475 0.492336 -0.500091 0.042851 0.032054 0.109927 -0.197815 0.040888 -0.279887 -0.159020 -0.216498 -0.269402 0.011036 -0.280229 -0.045289 0.079570 0.067112 0.119138 0.157336 0.103519 -0.019505 0.067348 -0.144358 -0.450682 0.145823 0.288039 -0.301297 -0.090804 0.522386 0.034330 -0.304264 -0.132488 0.218624 0.064462 -0.337410 -0.017991 0.130572 -0.081195 -0.428541 -0.038060 0.035991 -0.023570 0.461297 -0.241996 -0.180375 0.508704 -0.294027 -0.145864 0.120713 0.187369 -0.005305 0.125842 -0.257539 -0.075318 0.187395 0.121908 -0.384544 0.178569 0.109617 -0.137622 
With -0.086025 -0.132057 0.155564 -0.140193 0.142619 -0.275365 -0.172660 -0.046303 0.057604 -0.088850 -0.099720 0.023498 -0.067673 -0.147683 0.091181 -0.015448 0.109221 0.146008 0.081130 -0.055709 -0.071972 0.170975 0.069974 0.058725 -0.026046 -0.115646 -0.068393 0.082166 0.026927 0.105074 0.101549 -0.105370 -0.210780 0.238847 -0.045750 -0.018527 0.128533 0.033023 -0.055528 0.138934 0.127115 0.068355 -0.022500 -0.287715 -0.014751 0.095035 -0.035896 -0.050737 0.136541 -0.003787 0.170835 0.033668 0.201076 0.091739 -0.031172 -0.017714 -0.002316 0.113938 -0.008362 -0.168401 0.109662 -0.212974 -0.092224 0.045956 -0.150797 0.027148 0.065221 0.048103 0.120637 0.005858 -0.014851 0.077103 0.046532 -0.097599 -0.074987 0.168679 -0.313752 0.151873 -0.119196 -0.130256 0.096279 -0.098189 -0.263246 -0.010561 0.209892 0.009087 -0.001525 -0.175183 0.292923 -0.304381 -0.058798 0.036576 0.170383 0.004878 0.025069 0.029523 0.201774 0.022805 0.015880 -0.020163 -0.069363 0.149089 0.017476 -0.010986 0.027041 0.104039 0.127242 0.018501 -0.041550 0.202637 -0.086995 0.156550 0.042421 -0.124435 -0.052901 0.310518 0.137263 -0.264617 0.072425 0.088755 0.153326 -0.043674 -0.048069 -0.190962 0.026669 0.040739 0.059328 -0.075719 0.088609 -0.008631 -0.060633 0.030735 -0.133473 0.017513 0.134950 0.096374 0.130541 -0.141365 0.057484 -0.056186 0.024889 0.253543 -0.256487 0.021211 0.015334 0.057481 -0.099343 0.020310 -0.141286 -0.083788 -0.113600 -0.138900 0.002649 -0.144121 -0.025421 0.043416 0.033273 0.063171 0.079544 0.055280 -0.005760 0.036831 -0.072056 -0.232661 0.072807 0.146830 -0.157177 -0.047671 0.270128 0.016508 -0.155330 -0.067622 0.115111 0.034562 -0.171453 -0.009372 0.067937 -0.040147 -0.224187 -0.018749 0.019363 -0.014716 0.239971 -0.123162 -0.092211 0.259595 -0.152818 -0.076315 0.065061 0.092452 -0.004586 0.068413 -0.133463 -0.034396 0.093094 0.061663 -0.198512 0.088578 0.058734 -0.073599 
as -0.046802 -0.068921 0.085177 -0.074337 0.079382 -0.146286 -0.091926 -0.024295 0.032716 -0.050175 -0.054255 0.015015 -0.035161 -0.078728 0.050278 -0.007330 0.057806 0.076948 0.044759 -0.032204 -0.041491 0.093394 0.037329 0.031203 -0.013353 -0.061392 -0.035937 0.045251 0.016164 0.056733 0.052777 -0.055988 -0.110582 0.129034 -0.025042 -0.009910 0.071100 0.019507 -0.031771 0.075277 0.065997 0.036456 -0.009328 -0.156439 -0.008715 0.049773 -0.018234 -0.028456 0.070223 0.000491 0.094169 0.019908 0.110221 0.050018 -0.018635 -0.009925 -0.004463 0.063460 -0.005479 -0.088843 0.057775 -0.117362 -0.046443 0.023448 -0.079896 0.014205 0.038826 0.025685 0.066822 0.001520 -0.007740 0.039672 0.027169 -0.051110 -0.038684 0.092300 -0.168144 0.083136 -0.067160 -0.067436 0.052085 -0.056160 -0.141790 -0.009004 0.112558 0.001768 -0.000668 -0.097426 0.159272 -0.165610 -0.033476 0.018673 0.087959 0.002946 0.011873 0.018298 0.108624 0.013207 0.010443 -0.009455 -0.035766 0.082493 0.011698 -0.003666 0.013133 0.054894 0.069530 0.009533 -0.019883 0.112035 -0.048768 0.080700 0.024178 -0.065874 -0.027896 0.164511 0.075067 -0.140651 0.036969 0.049579 0.080244 -0.023592 -0.029202 -0.101448 0.016596 0.020649 0.030453 -0.043664 0.045923 -0.006039 -0.034564 0.015326 -0.070809 0.012188 0.073749 0.051850 0.074323 -0.076526 0.032002 -0.028756 0.014162 0.138069 -0.140825 0.011209 0.008452 0.031698 -0.054704 0.011534 -0.076358 -0.043295 -0.061874 -0.075941 0.004345 -0.075535 -0.014345 0.023516 0.017548 0.031613 0.046456 0.030795 -0.006667 0.018280 -0.040350 -0.126648 0.038944 0.082498 -0.082933 -0.025994 0.145818 0.011417 -0.085722 -0.038106 0.058134 0.018388 -0.094288 -0.006606 0.035596 -0.022787 -0.118496 -0.012872 0.009509 -0.005448 0.128167 -0.066056 -0.050381 0.143141 -0.078359 -0.040282 0.031397 0.053740 0.000095 0.036202 -0.072759 -0.020652 0.048788 0.032270 -0.106927 0.050574 0.032764 -0.038902 
come -0.052409 -0.080173 0.093111 -0.082213 0.087752 -0.168859 -0.107091 -0.030650 0.034490 -0.052695 -0.061437 0.017631 -0.041290 -0.091679 0.057451 -0.007628 0.064326 0.087634 0.048700 -0.039364 -0.043103 0.102275 0.041459 0.037596 -0.018450 -0.073990 -0.045216 0.050592 0.017340 0.063863 0.063054 -0.060407 -0.128851 0.147765 -0.027884 -0.013060 0.081924 0.022355 -0.032211 0.086590 0.075370 0.044723 -0.015273 -0.176759 -0.012513 0.054648 -0.023049 -0.031173 0.079290 -0.002575 0.103152 0.023514 0.124936 0.057672 -0.017732 -0.009277 -0.004825 0.072953 -0.003588 -0.100859 0.064550 -0.133157 -0.057547 0.031284 -0.094512 0.018817 0.043790 0.029960 0.073402 0.005309 -0.005345 0.043126 0.029135 -0.055727 -0.048382 0.105803 -0.193745 0.092702 -0.075047 -0.078763 0.060312 -0.058490 -0.161175 -0.006113 0.131739 0.006083 -0.001609 -0.110158 0.179592 -0.187808 -0.038581 0.026130 0.104056 0.003722 0.018019 0.021350 0.125317 0.013293 0.010010 -0.014050 -0.040929 0.094887 0.010179 -0.006911 0.017805 0.061856 0.077491 0.010263 -0.026059 0.126256 -0.051388 0.096118 0.030028 -0.080232 -0.032343 0.186544 0.083891 -0.159042 0.045551 0.053742 0.094516 -0.027653 -0.033473 -0.117401 0.015601 0.024772 0.035907 -0.049899 0.056526 -0.006512 -0.036768 0.018075 -0.083980 0.012012 0.080923 0.058654 0.084875 -0.087179 0.035510 -0.033119 0.011619 0.156813 -0.158482 0.011893 0.012723 0.032308 -0.059939 0.009614 -0.085014 -0.049494 -0.065853 -0.084621 0.005075 -0.088572 -0.013466 0.023690 0.021748 0.037008 0.050411 0.030281 -0.002664 0.022346 -0.043919 -0.139755 0.047744 0.089459 -0.095939 -0.030174 0.163324 0.011121 -0.095720 -0.043579 0.067793 0.021405 -0.108307 -0.006730 0.038136 -0.027242 -0.137886 -0.014436 0.008112 -0.009658 0.144127 -0.075911 -0.059102 0.158398 -0.091280 -0.047424 0.039006 0.056701 -0.003888 0.038084 -0.083142 -0.025283 0.055109 0.036374 -0.120369 0.056817 0.034999 -0.040643 
yeah -0.112010 -0.170264 0.208878 -0.184760 0.192825 -0.364561 -0.231268 -0.063030 0.073567 -0.115467 -0.133714 0.032003 -0.087934 -0.199544 0.124058 -0.020495 0.143887 0.192350 0.106210 -0.076358 -0.101528 0.227035 0.087960 0.078151 -0.036122 -0.158359 -0.091102 0.104496 0.033944 0.136461 0.133815 -0.139883 -0.279416 0.315091 -0.063614 -0.019652 0.175118 0.049083 -0.075428 0.185055 0.164948 0.089356 -0.025286 -0.382890 -0.020826 0.125385 -0.047970 -0.064771 0.176582 -0.004383 0.228167 0.045886 0.269611 0.120430 -0.044887 -0.022733 -0.005219 0.151319 -0.013071 -0.222257 0.142338 -0.285059 -0.119462 0.065660 -0.197704 0.041075 0.092966 0.063630 0.159777 0.003764 -0.013379 0.101351 0.063533 -0.126459 -0.096518 0.230119 -0.414529 0.202289 -0.161921 -0.172069 0.125423 -0.131805 -0.347206 -0.019262 0.282408 0.008890 -0.005866 -0.237717 0.392852 -0.401803 -0.080885 0.050451 0.225557 0.007349 0.033393 0.040845 0.266972 0.028056 0.022903 -0.023307 -0.092111 0.198397 0.022853 -0.013719 0.036713 0.135318 0.164461 0.022320 -0.054498 0.270657 -0.116516 0.205982 0.058321 -0.167311 -0.071436 0.411635 0.180325 -0.349551 0.093704 0.120503 0.200442 -0.059543 -0.069234 -0.254598 0.040449 0.054578 0.075229 -0.103022 0.118022 -0.013833 -0.084942 0.045286 -0.177889 0.022628 0.178362 0.129287 0.175283 -0.185673 0.076986 -0.070451 0.031411 0.333442 -0.344266 0.030413 0.023601 0.076926 -0.132606 0.028090 -0.189248 -0.110937 -0.146890 -0.188040 0.006470 -0.189072 -0.031014 0.056454 0.046274 0.079510 0.107310 0.069788 -0.012276 0.045607 -0.098629 -0.308385 0.099104 0.198546 -0.201853 -0.060277 0.360131 0.022463 -0.208470 -0.087225 0.149466 0.044941 -0.233638 -0.012142 0.090667 -0.053932 -0.295610 -0.027497 0.025726 -0.013197 0.315817 -0.166142 -0.126303 0.349989 -0.201178 -0.098087 0.086154 0.127299 -0.002164 0.091019 -0.176705 -0.048487 0.124185 0.085819 -0.260989 0.120690 0.077524 -0.094362 
Metal -0.008774 -0.014528 0.012754 -0.008228 0.015015 -0.021211 -0.014879 -0.004516 0.003541 -0.004368 -0.011706 0.003208 -0.002791 -0.013913 0.005329 -0.001970 0.010124 0.013983 0.006493 -0.002508 -0.009481 0.016604 0.001627 0.002044 -0.006018 -0.010138 -0.006700 0.008810 0.002092 0.010136 0.005088 -0.005459 -0.015054 0.019295 -0.007513 -0.001732 0.010934 0.004589 -0.005062 0.013386 0.008477 0.003937 -0.000005 -0.025141 0.002246 0.009310 -0.004574 -0.007630 0.009363 0.000903 0.012882 0.006731 0.014147 0.009597 0.000014 -0.001733 0.002585 0.007459 -0.004176 -0.017325 0.006715 -0.014459 -0.004091 0.005259 -0.012172 0.003259 0.003389 0.002619 0.007984 0.001818 0.002507 0.004634 0.001015 -0.008365 -0.004365 0.011782 -0.028042 0.014300 -0.006877 -0.008522 0.010126 -0.009984 -0.020277 -0.001316 0.017392 0.000520 -0.003505 -0.017750 0.027317 -0.023707 -0.006490 0.004926 0.017056 0.003293 0.001279 0.003556 0.014570 0.002586 0.003972 -0.002032 -0.002193 0.011239 -0.001211 -0.002607 -0.001175 0.007908 0.008766 0.000729 -0.003049 0.017077 -0.009966 0.009664 0.004174 -0.009065 -0.002797 0.023671 0.012416 -0.025284 0.009477 0.005159 0.015767 -0.006047 -0.005171 -0.015824 0.005013 0.004258 0.004094 -0.009554 0.010932 -0.000934 -0.007641 0.005453 -0.009071 0.004002 0.013611 0.007564 0.008487 -0.014411 0.004177 -0.000856 0.004294 0.018975 -0.025701 0.002914 0.000366 0.008198 -0.009656 0.000976 -0.014965 -0.006801 -0.010493 -0.011216 0.003503 -0.012890 -0.000289 0.005627 0.004378 0.003195 0.002917 0.006332 0.001022 -0.000167 -0.009877 -0.018411 0.008081 0.010122 -0.009688 -0.001728 0.020319 0.003389 -0.015346 -0.003515 0.007451 0.004951 -0.015374 -0.000658 0.003599 0.000213 -0.018691 0.000618 0.001653 0.000855 0.019282 -0.012942 -0.003753 0.021667 -0.010556 -0.008264 0.006086 0.009682 -0.003146 0.006965 -0.009729 -0.002735 0.007815 0.006764 -0.015911 0.005934 0.006268 -0.004531 
than -0.037114 -0.057179 0.066236 -0.056320 0.062414 -0.118704 -0.074848 -0.019653 0.021875 -0.035448 -0.045296 0.010295 -0.029883 -0.062526 0.042240 -0.007828 0.043853 0.058966 0.033859 -0.027290 -0.030585 0.074513 0.030629 0.022158 -0.010285 -0.047610 -0.029816 0.032405 0.012538 0.042458 0.040589 -0.042358 -0.088354 0.101001 -0.020314 -0.007839 0.054362 0.013354 -0.022661 0.057092 0.050786 0.029996 -0.009351 -0.120590 -0.006401 0.039449 -0.016036 -0.020687 0.056950 -0.000062 0.072829 0.013792 0.085308 0.041479 -0.015078 -0.006131 -0.001283 0.051166 -0.002061 -0.069085 0.046857 -0.087477 -0.040044 0.018275 -0.061433 0.012172 0.030473 0.019544 0.053876 -0.000067 -0.002948 0.033257 0.018011 -0.042810 -0.032936 0.075234 -0.134518 0.062505 -0.049120 -0.057334 0.040718 -0.043512 -0.113612 -0.005056 0.091391 0.004597 0.000478 -0.074894 0.126152 -0.127322 -0.028672 0.018822 0.073637 0.003210 0.010786 0.015855 0.083141 0.007961 0.008295 -0.008584 -0.028213 0.066428 0.007851 -0.000976 0.009493 0.041706 0.053544 0.008443 -0.015517 0.087710 -0.039368 0.067240 0.017180 -0.053166 -0.022039 0.128888 0.054248 -0.111846 0.030015 0.039601 0.066433 -0.018698 -0.020333 -0.082500 0.010108 0.019204 0.024713 -0.036358 0.037749 -0.000758 -0.027055 0.015149 -0.058587 0.007767 0.057589 0.039595 0.055375 -0.059651 0.023625 -0.022306 0.010042 0.109256 -0.107530 0.006672 0.007643 0.024885 -0.044588 0.008104 -0.061681 -0.032970 -0.047618 -0.060517 -0.000001 -0.063002 -0.007715 0.019474 0.012989 0.023480 0.032568 0.022222 -0.005861 0.014761 -0.031708 -0.098071 0.030002 0.064689 -0.065986 -0.016900 0.114500 0.005919 -0.063265 -0.025085 0.047244 0.011784 -0.075100 -0.002530 0.026848 -0.017059 -0.092878 -0.006799 0.008522 -0.006738 0.102065 -0.053641 -0.040375 0.109993 -0.062842 -0.030165 0.028085 0.037822 -0.002466 0.026113 -0.054636 -0.014985 0.038360 0.026215 -0.082500 0.036396 0.025654 -0.027539 
that -0.054195 -0.089651 0.101548 -0.093536 0.095723 -0.180737 -0.117906 -0.031955 0.038548 -0.060883 -0.067114 0.016918 -0.040909 -0.100608 0.064990 -0.010839 0.073178 0.095559 0.052247 -0.041323 -0.051792 0.114644 0.042629 0.036722 -0.019370 -0.076517 -0.047840 0.055112 0.019366 0.067527 0.068418 -0.070183 -0.140743 0.160613 -0.031391 -0.011204 0.085612 0.024383 -0.036659 0.094775 0.081910 0.046803 -0.015535 -0.190584 -0.010855 0.060655 -0.021668 -0.031624 0.086986 -0.002797 0.117663 0.024659 0.134034 0.061228 -0.022342 -0.011264 -0.001016 0.077781 -0.007828 -0.112350 0.074333 -0.139740 -0.063055 0.034446 -0.098209 0.022355 0.047366 0.034400 0.079993 0.001656 -0.006698 0.048057 0.033914 -0.061553 -0.050191 0.116301 -0.207515 0.103995 -0.078450 -0.086507 0.062097 -0.067890 -0.175960 -0.008671 0.138920 0.006660 -0.003712 -0.121020 0.196773 -0.203242 -0.041021 0.025514 0.114244 0.004925 0.014565 0.023071 0.133298 0.012201 0.011111 -0.014784 -0.047313 0.101469 0.012400 -0.003238 0.018072 0.065634 0.085821 0.012036 -0.026750 0.136511 -0.058902 0.104583 0.032072 -0.083400 -0.035160 0.207216 0.090257 -0.177461 0.048950 0.062371 0.100102 -0.026966 -0.033826 -0.125462 0.021636 0.029147 0.039270 -0.053702 0.060334 -0.006834 -0.039638 0.019755 -0.091428 0.013380 0.089830 0.061840 0.087760 -0.096045 0.035182 -0.036915 0.013022 0.170681 -0.169440 0.011987 0.011251 0.036549 -0.071380 0.012590 -0.096639 -0.056536 -0.073744 -0.095096 0.001055 -0.096587 -0.013446 0.027980 0.020009 0.039024 0.055816 0.037149 -0.006437 0.025816 -0.047438 -0.155096 0.050352 0.100397 -0.104054 -0.030274 0.179021 0.012668 -0.101651 -0.042796 0.077345 0.019802 -0.114326 -0.004386 0.044020 -0.027194 -0.149268 -0.015740 0.010220 -0.010365 0.156568 -0.080980 -0.064390 0.174711 -0.097888 -0.051412 0.040672 0.062148 -0.002650 0.044502 -0.090355 -0.024819 0.062772 0.043175 -0.130983 0.060913 0.039491 -0.049336 
one -0.135686 -0.209568 0.245718 -0.224752 0.232218 -0.440516 -0.278527 -0.074690 0.094030 -0.140354 -0.158075 0.038129 -0.104169 -0.237772 0.148539 -0.025021 0.168736 0.227854 0.131417 -0.093579 -0.117674 0.267353 0.109100 0.096058 -0.040834 -0.182702 -0.114611 0.127426 0.039494 0.163470 0.163143 -0.168025 -0.335327 0.385229 -0.079699 -0.029647 0.207654 0.059846 -0.089873 0.223819 0.199955 0.108542 -0.036336 -0.455497 -0.025707 0.146198 -0.050344 -0.077796 0.210585 -0.006975 0.277236 0.053692 0.323619 0.149299 -0.051545 -0.024459 -0.005778 0.182600 -0.012772 -0.266385 0.173905 -0.340345 -0.149377 0.076833 -0.240777 0.048937 0.108011 0.078743 0.193155 0.008485 -0.016600 0.121610 0.075829 -0.151749 -0.121257 0.274406 -0.500207 0.243669 -0.196005 -0.208224 0.148156 -0.156284 -0.420637 -0.018767 0.335040 0.010293 -0.003349 -0.283452 0.468916 -0.485264 -0.093392 0.058563 0.271849 0.012828 0.036191 0.046149 0.322922 0.035236 0.025786 -0.030286 -0.112314 0.245285 0.027623 -0.010849 0.042289 0.161616 0.200899 0.029920 -0.064051 0.328158 -0.138728 0.244454 0.069694 -0.205081 -0.081220 0.489263 0.215523 -0.419228 0.114849 0.143194 0.241387 -0.071457 -0.079641 -0.301209 0.045194 0.065836 0.095321 -0.127062 0.141233 -0.011754 -0.102622 0.051671 -0.217742 0.027673 0.214610 0.153146 0.211211 -0.224130 0.088775 -0.083716 0.035586 0.406495 -0.413512 0.031302 0.026232 0.090588 -0.162568 0.033384 -0.228617 -0.128080 -0.180031 -0.223250 0.005228 -0.227068 -0.035079 0.072329 0.056724 0.096820 0.133196 0.085634 -0.011100 0.056690 -0.117954 -0.364804 0.118090 0.236193 -0.249988 -0.071822 0.427376 0.029262 -0.245078 -0.106361 0.181267 0.051723 -0.279964 -0.014734 0.108844 -0.064715 -0.356143 -0.034129 0.031127 -0.019158 0.377101 -0.196707 -0.150141 0.417574 -0.237678 -0.122039 0.099786 0.148259 -0.003822 0.102491 -0.214017 -0.057260 0.154214 0.097119 -0.316366 0.149537 0.094397 -0.112257 
no -0.062678 -0.095165 0.110919 -0.100342 0.107323 -0.197773 -0.126486 -0.035703 0.039561 -0.064501 -0.077138 0.018538 -0.046959 -0.108783 0.071292 -0.010804 0.078316 0.105347 0.057238 -0.039335 -0.056401 0.124522 0.050276 0.044901 -0.020219 -0.088077 -0.053032 0.061502 0.020243 0.077892 0.072364 -0.078139 -0.153140 0.173672 -0.034240 -0.014400 0.097877 0.024641 -0.040821 0.102551 0.091667 0.053818 -0.015337 -0.206392 -0.012996 0.066185 -0.027208 -0.032843 0.098308 -0.001127 0.129231 0.028853 0.148944 0.069927 -0.022600 -0.013371 0.000370 0.081660 -0.009360 -0.125450 0.081381 -0.157680 -0.068044 0.035561 -0.108065 0.023195 0.052407 0.038059 0.087855 0.002783 -0.010277 0.056910 0.037993 -0.070555 -0.052365 0.125068 -0.231937 0.110810 -0.085741 -0.093598 0.071230 -0.072145 -0.192929 -0.010753 0.155796 0.007966 -0.000774 -0.129256 0.215033 -0.219283 -0.045513 0.027617 0.121353 0.004642 0.019372 0.022552 0.150278 0.013381 0.012608 -0.013364 -0.049486 0.110449 0.013314 -0.006521 0.018112 0.075582 0.091826 0.013277 -0.026498 0.151077 -0.067040 0.114297 0.030739 -0.094182 -0.037119 0.227561 0.099563 -0.189960 0.054851 0.065947 0.109023 -0.030162 -0.037857 -0.141606 0.021469 0.029074 0.045769 -0.057462 0.063079 -0.007117 -0.048331 0.026133 -0.096905 0.012769 0.095423 0.070587 0.094295 -0.101389 0.041225 -0.037986 0.019556 0.186335 -0.185722 0.013161 0.012183 0.044868 -0.076556 0.017466 -0.104489 -0.059266 -0.081138 -0.102004 0.004468 -0.106776 -0.013928 0.029364 0.027095 0.043554 0.059551 0.037706 -0.004564 0.023685 -0.051748 -0.168613 0.054170 0.111178 -0.113316 -0.031088 0.197837 0.013092 -0.114388 -0.047435 0.084356 0.024502 -0.127548 -0.006386 0.051919 -0.030411 -0.162149 -0.018075 0.013592 -0.010717 0.172999 -0.092134 -0.068302 0.191523 -0.112606 -0.055155 0.045845 0.067137 -0.001189 0.050454 -0.097611 -0.030154 0.069455 0.045428 -0.141841 0.065699 0.041101 -0.053029 
know -0.042392 -0.063292 0.079025 -0.067356 0.074768 -0.137370 -0.085778 -0.022698 0.028074 -0.043574 -0.052989 0.012540 -0.031974 -0.073864 0.042896 -0.004244 0.050465 0.070565 0.041147 -0.032542 -0.040007 0.083722 0.033219 0.032388 -0.011959 -0.057350 -0.035169 0.039265 0.012869 0.052248 0.052224 -0.051404 -0.104519 0.121769 -0.022452 -0.005658 0.067592 0.018515 -0.025384 0.071473 0.065017 0.033760 -0.010209 -0.140766 -0.008107 0.047314 -0.017562 -0.027131 0.068802 -0.000922 0.087549 0.013518 0.101651 0.041805 -0.013629 -0.008052 -0.005006 0.060386 -0.007271 -0.084749 0.051421 -0.105287 -0.043629 0.024142 -0.076150 0.013552 0.031961 0.024170 0.058467 0.005476 -0.009346 0.036278 0.023737 -0.048561 -0.037537 0.085505 -0.151344 0.073784 -0.063541 -0.063956 0.047834 -0.049067 -0.129323 -0.008340 0.103626 0.001550 -0.000693 -0.089869 0.147764 -0.152941 -0.031719 0.022619 0.085758 0.003265 0.010673 0.013027 0.102191 0.010799 0.006211 -0.009542 -0.035595 0.078940 0.010668 -0.004968 0.011152 0.051765 0.063896 0.006052 -0.022497 0.099649 -0.044722 0.073665 0.023410 -0.060150 -0.022902 0.154530 0.064249 -0.131740 0.032514 0.040827 0.076295 -0.023219 -0.021818 -0.097158 0.014874 0.017112 0.028448 -0.041668 0.045083 -0.004578 -0.028776 0.016955 -0.065149 0.012045 0.068418 0.048125 0.068936 -0.070735 0.029108 -0.024175 0.010347 0.127843 -0.128151 0.007581 0.009829 0.025500 -0.047781 0.012493 -0.067417 -0.037133 -0.057114 -0.069335 -0.000002 -0.073910 -0.013058 0.021601 0.015504 0.032178 0.037559 0.025059 -0.000536 0.014881 -0.032290 -0.116086 0.039889 0.074189 -0.073837 -0.025307 0.134604 0.007758 -0.078644 -0.036077 0.057404 0.015909 -0.084777 -0.004756 0.035055 -0.020057 -0.110665 -0.007295 0.011425 -0.005067 0.119464 -0.063127 -0.048006 0.129800 -0.076352 -0.038405 0.030444 0.049831 -0.002723 0.034299 -0.067934 -0.016258 0.048320 0.027402 -0.098343 0.041724 0.026096 -0.031774 
take -0.049962 -0.077977 0.092992 -0.082695 0.084790 -0.164081 -0.103232 -0.030680 0.036560 -0.053618 -0.061971 0.014803 -0.037796 -0.092116 0.058013 -0.010655 0.062437 0.083812 0.049397 -0.035718 -0.045123 0.099089 0.037507 0.036260 -0.016414 -0.071479 -0.044598 0.045731 0.017253 0.062331 0.059192 -0.064020 -0.124421 0.143455 -0.030112 -0.011217 0.078941 0.021406 -0.034498 0.081952 0.073065 0.040640 -0.010361 -0.171946 -0.008419 0.054626 -0.019678 -0.030029 0.078935 -0.002723 0.103425 0.022965 0.119014 0.052070 -0.019366 -0.008066 -0.003751 0.069671 -0.004345 -0.099832 0.064251 -0.127130 -0.053312 0.028764 -0.089029 0.014833 0.039442 0.028724 0.071639 0.003037 -0.008478 0.044651 0.026797 -0.055488 -0.046360 0.101581 -0.185515 0.089867 -0.070336 -0.080082 0.053453 -0.058792 -0.155252 -0.007626 0.126359 0.005647 -0.003738 -0.108564 0.177686 -0.182500 -0.037489 0.023753 0.098479 0.004394 0.015851 0.017889 0.120809 0.013087 0.007828 -0.011132 -0.039264 0.088706 0.008918 -0.002298 0.016134 0.059260 0.076213 0.012288 -0.020631 0.119998 -0.051830 0.094699 0.024652 -0.076422 -0.033597 0.184335 0.080126 -0.159029 0.043917 0.055930 0.089581 -0.027684 -0.030902 -0.113390 0.018473 0.022303 0.034076 -0.048575 0.054261 -0.002399 -0.037579 0.018802 -0.080854 0.010870 0.078872 0.059828 0.082538 -0.083813 0.035512 -0.032821 0.011169 0.153134 -0.156348 0.010741 0.008584 0.031500 -0.059760 0.014578 -0.084082 -0.048012 -0.065265 -0.081345 0.002247 -0.088293 -0.012404 0.027536 0.018876 0.037945 0.048602 0.033154 -0.003176 0.018542 -0.043427 -0.139275 0.043918 0.090779 -0.094858 -0.029418 0.161085 0.010701 -0.091815 -0.039002 0.067758 0.019088 -0.106177 -0.004371 0.040091 -0.023269 -0.130400 -0.011145 0.008120 -0.005417 0.141702 -0.074675 -0.053781 0.156660 -0.087612 -0.044808 0.035846 0.055008 -0.003935 0.039393 -0.080905 -0.019897 0.054153 0.037774 -0.121014 0.056456 0.034622 -0.042154 
militia -0.002799 -0.009871 0.009819 -0.014380 0.012836 -0.020136 -0.012815 -0.002764 0.005800 -0.003266 -0.006287 0.002107 -0.006583 -0.008569 0.007304 -0.005257 0.008642 0.012070 0.006810 -0.002016 -0.009469 0.011534 0.004914 0.004922 -0.002782 -0.007274 -0.008390 0.004507 0.004107 0.009863 0.007783 -0.007634 -0.016231 0.016382 -0.005855 0.000651 0.006797 0.003709 -0.002019 0.013407 0.005669 0.001154 -0.005445 -0.019353 0.000259 0.008692 -0.004141 -0.007661 0.007562 0.002527 0.015602 -0.000755 0.018645 0.006189 -0.002853 0.000617 0.001222 0.006810 0.000615 -0.015424 0.010311 -0.015960 -0.010794 0.004814 -0.014418 0.003551 0.006645 0.006015 0.009345 0.001302 -0.001859 0.003466 0.002798 -0.011083 -0.002050 0.012108 -0.025804 0.010906 -0.008838 -0.011353 0.009040 -0.005228 -0.018072 0.000777 0.018814 -0.001776 0.002108 -0.014798 0.019255 -0.022501 -0.001918 0.001810 0.015311 -0.003128 -0.001726 -0.001116 0.017938 -0.002209 0.002711 -0.004905 -0.009558 0.010496 0.002637 -0.003941 0.005139 0.010276 0.009271 -0.000817 -0.001568 0.017414 -0.007842 0.015217 0.003069 -0.009414 -0.008131 0.024884 0.013167 -0.017203 0.007279 0.005497 0.012063 -0.002043 -0.001848 -0.010485 0.005205 0.002154 0.005219 -0.002918 0.007063 -0.003753 -0.005525 0.003611 -0.009268 0.004393 0.009762 0.005389 0.009523 -0.011284 0.004314 -0.004607 0.000632 0.023452 -0.016604 0.004687 -0.000971 0.000647 -0.004735 0.005224 -0.013891 -0.007898 -0.010722 -0.009579 -0.002125 -0.009520 0.000972 0.006335 0.006378 0.004058 0.008941 0.008039 -0.002121 0.000213 -0.004490 -0.016278 0.003926 0.008579 -0.010418 -0.002656 0.023851 0.003263 -0.015384 -0.009383 0.011394 -0.000615 -0.010151 -0.002904 0.001433 -0.004053 -0.017796 -0.001143 -0.000875 -0.000778 0.017785 -0.011413 -0.005786 0.020642 -0.008846 -0.009970 0.001773 0.007794 0.000896 0.003659 -0.012221 -0.000032 0.006773 0.007359 -0.011446 0.005620 0.004785 -0.006068 
No -0.076702 -0.117131 0.139986 -0.124883 0.133396 -0.247265 -0.159766 -0.042456 0.053659 -0.079392 -0.093194 0.023468 -0.059524 -0.135238 0.084050 -0.016212 0.097996 0.128976 0.073132 -0.052760 -0.069019 0.152919 0.064308 0.050827 -0.027022 -0.107163 -0.063703 0.073075 0.025843 0.095520 0.089659 -0.094918 -0.192722 0.215506 -0.041576 -0.012505 0.119398 0.032730 -0.051879 0.128995 0.115798 0.063349 -0.021691 -0.259095 -0.013406 0.084736 -0.031600 -0.045987 0.120145 -0.002753 0.156548 0.031369 0.184073 0.086240 -0.026982 -0.016287 -0.004557 0.106664 -0.008397 -0.154449 0.099554 -0.195805 -0.084986 0.045274 -0.138891 0.028913 0.060990 0.045519 0.110109 0.001910 -0.013083 0.069506 0.046040 -0.089075 -0.068411 0.154729 -0.289177 0.136673 -0.110561 -0.116538 0.088284 -0.089910 -0.238735 -0.012797 0.190769 0.005203 -0.004302 -0.162239 0.266849 -0.274216 -0.058133 0.035138 0.153437 0.007556 0.022908 0.028385 0.186582 0.018894 0.012133 -0.019746 -0.063833 0.138207 0.016381 -0.009896 0.020179 0.094781 0.117756 0.013748 -0.036689 0.188164 -0.080389 0.142124 0.042378 -0.114323 -0.044828 0.282992 0.123192 -0.239338 0.064908 0.079999 0.138366 -0.036650 -0.048567 -0.176189 0.025660 0.034844 0.055602 -0.072059 0.081352 -0.005145 -0.057324 0.028785 -0.125809 0.016813 0.119276 0.085486 0.118760 -0.129660 0.049851 -0.051180 0.023552 0.228746 -0.234462 0.020836 0.016392 0.053858 -0.092586 0.019818 -0.128327 -0.074954 -0.098539 -0.130673 0.004049 -0.129505 -0.019374 0.040697 0.029917 0.054684 0.075125 0.050713 -0.006279 0.030077 -0.067364 -0.209634 0.066592 0.135550 -0.140781 -0.043064 0.244674 0.014382 -0.143963 -0.058688 0.102825 0.028492 -0.155934 -0.010926 0.063104 -0.037113 -0.199678 -0.018182 0.017051 -0.012198 0.213899 -0.113401 -0.083491 0.238429 -0.135503 -0.065962 0.057176 0.085975 -0.001280 0.059211 -0.118849 -0.035137 0.089491 0.056328 -0.181622 0.081434 0.051871 -0.064519 
so -0.053158 -0.082156 0.099081 -0.087962 0.089601 -0.175150 -0.112482 -0.027901 0.037405 -0.053807 -0.063612 0.013278 -0.043038 -0.092556 0.060856 -0.007423 0.066600 0.092608 0.051945 -0.037134 -0.047284 0.106781 0.043489 0.035969 -0.015313 -0.075818 -0.046721 0.050641 0.015752 0.067469 0.066461 -0.065914 -0.134731 0.151232 -0.030386 -0.010036 0.084538 0.024319 -0.035195 0.086772 0.081364 0.041963 -0.015241 -0.180088 -0.008461 0.059054 -0.018882 -0.029626 0.085065 -0.003969 0.110644 0.020717 0.128577 0.060352 -0.022648 -0.010294 -0.000414 0.075771 -0.005007 -0.104976 0.069274 -0.137110 -0.054892 0.030190 -0.095377 0.016226 0.040888 0.028987 0.077159 0.002794 -0.006215 0.046809 0.027730 -0.061746 -0.048982 0.109476 -0.198578 0.097049 -0.075377 -0.084522 0.061930 -0.064271 -0.167012 -0.009678 0.136947 0.003959 -0.005059 -0.115419 0.184840 -0.193362 -0.036349 0.023882 0.108539 0.003382 0.015867 0.021137 0.130336 0.013086 0.008280 -0.011070 -0.045494 0.097526 0.011892 -0.007390 0.015364 0.063241 0.079960 0.013602 -0.025955 0.131344 -0.058216 0.098543 0.027675 -0.082561 -0.030682 0.196373 0.084107 -0.165529 0.045291 0.058903 0.095904 -0.026906 -0.030932 -0.121432 0.016201 0.024051 0.038074 -0.049730 0.055321 -0.003967 -0.037999 0.022547 -0.087652 0.009271 0.086329 0.059542 0.083899 -0.086835 0.036092 -0.033945 0.013443 0.162298 -0.165452 0.012891 0.012311 0.037535 -0.062619 0.012213 -0.089881 -0.050159 -0.069780 -0.091179 0.003930 -0.088905 -0.016825 0.027998 0.021249 0.036344 0.051272 0.034174 -0.002601 0.024367 -0.048614 -0.148172 0.045191 0.091940 -0.096939 -0.029181 0.173157 0.010429 -0.100884 -0.042086 0.070243 0.020600 -0.109627 -0.005606 0.043361 -0.026765 -0.141054 -0.013744 0.009505 -0.006483 0.149220 -0.078499 -0.061004 0.167644 -0.093081 -0.049462 0.037514 0.061224 -0.001063 0.044003 -0.082868 -0.021618 0.062255 0.040934 -0.122967 0.059483 0.034921 -0.047022 
The -0.066370 -0.099104 0.120074 -0.106666 0.110220 -0.210131 -0.134460 -0.039472 0.042484 -0.067886 -0.078101 0.020437 -0.050040 -0.115553 0.071815 -0.012974 0.083883 0.111623 0.063022 -0.047208 -0.057349 0.129438 0.053015 0.044650 -0.021080 -0.090487 -0.055852 0.062934 0.017955 0.080830 0.076776 -0.082097 -0.160312 0.182458 -0.038497 -0.014329 0.099194 0.026287 -0.044962 0.110595 0.099239 0.054679 -0.018118 -0.222731 -0.014181 0.069781 -0.027816 -0.039754 0.101797 -0.004040 0.133428 0.026232 0.153657 0.071050 -0.022050 -0.012773 -0.005241 0.087115 -0.008764 -0.131988 0.081823 -0.162165 -0.068606 0.036353 -0.117024 0.019737 0.052389 0.036268 0.093470 0.003328 -0.009436 0.060184 0.038008 -0.073478 -0.057845 0.130629 -0.241105 0.116888 -0.092775 -0.098360 0.073254 -0.076808 -0.206000 -0.008183 0.164698 0.004470 0.000106 -0.136635 0.230339 -0.235462 -0.046114 0.030788 0.128921 0.004025 0.020851 0.026094 0.158813 0.017905 0.011486 -0.016318 -0.053203 0.116505 0.013061 -0.007667 0.020850 0.078058 0.094796 0.013596 -0.030531 0.158668 -0.069033 0.119630 0.033742 -0.096409 -0.042337 0.239525 0.104297 -0.204373 0.055549 0.068407 0.120108 -0.033613 -0.037622 -0.146393 0.021767 0.029862 0.045536 -0.059512 0.068918 -0.006641 -0.047203 0.026845 -0.103583 0.012558 0.103336 0.072509 0.103530 -0.106592 0.043185 -0.045010 0.016218 0.195565 -0.197183 0.016743 0.014722 0.045961 -0.076196 0.018006 -0.112511 -0.061343 -0.085461 -0.110998 0.005456 -0.110737 -0.019221 0.034638 0.027204 0.045688 0.065023 0.039285 -0.007350 0.029160 -0.055419 -0.178121 0.055719 0.116584 -0.119969 -0.037401 0.208790 0.011903 -0.121358 -0.049268 0.085613 0.025002 -0.132413 -0.004884 0.053791 -0.030078 -0.172957 -0.016210 0.012404 -0.009421 0.182235 -0.097019 -0.070310 0.201703 -0.116652 -0.058444 0.047362 0.075466 -0.001915 0.051297 -0.103840 -0.030446 0.072455 0.049392 -0.154370 0.068719 0.047104 -0.055237 
do -0.054880 -0.085573 0.105103 -0.094446 0.098549 -0.179236 -0.114707 -0.030933 0.037540 -0.059730 -0.069434 0.013664 -0.040772 -0.098141 0.062650 -0.009217 0.074131 0.095840 0.052544 -0.040176 -0.048767 0.111521 0.046433 0.037743 -0.014547 -0.078993 -0.046308 0.051032 0.019284 0.068116 0.069887 -0.070591 -0.136542 0.158010 -0.029707 -0.010400 0.088586 0.021922 -0.036365 0.092712 0.082028 0.046746 -0.013700 -0.190518 -0.008500 0.063283 -0.023642 -0.032066 0.086840 -0.003216 0.114312 0.022104 0.130251 0.061363 -0.019047 -0.010467 -0.000846 0.073502 -0.007815 -0.108337 0.070695 -0.141395 -0.059535 0.029232 -0.095632 0.018370 0.044573 0.032489 0.082873 0.003143 -0.007997 0.052065 0.030512 -0.060523 -0.048760 0.113425 -0.203977 0.101781 -0.078678 -0.085706 0.060622 -0.065726 -0.174942 -0.006982 0.140316 0.006474 -0.003621 -0.115132 0.196563 -0.200164 -0.041085 0.027897 0.113076 0.002788 0.017149 0.019601 0.131087 0.016146 0.009960 -0.012158 -0.043205 0.100637 0.014170 -0.004869 0.016645 0.063963 0.085969 0.010799 -0.029128 0.135167 -0.058078 0.099719 0.030259 -0.083633 -0.032756 0.204279 0.086627 -0.171466 0.046491 0.060499 0.103071 -0.030814 -0.035058 -0.126222 0.018828 0.028667 0.037884 -0.048993 0.057315 -0.006174 -0.043000 0.018404 -0.091572 0.011827 0.088498 0.063654 0.086674 -0.090295 0.034789 -0.037187 0.013690 0.165071 -0.172630 0.015306 0.013481 0.036877 -0.066104 0.014977 -0.092321 -0.053855 -0.075396 -0.091034 0.000162 -0.094834 -0.014880 0.025768 0.019516 0.039633 0.055244 0.037334 -0.003905 0.024106 -0.048488 -0.150710 0.048591 0.096337 -0.099855 -0.028230 0.178879 0.011860 -0.101710 -0.042861 0.073747 0.021510 -0.117993 -0.003942 0.044329 -0.028682 -0.147163 -0.015465 0.012767 -0.009863 0.155349 -0.083326 -0.063463 0.173183 -0.098772 -0.052195 0.043953 0.062814 -0.001886 0.041748 -0.087674 -0.023229 0.062068 0.043123 -0.130611 0.061280 0.040230 -0.048001 
when -0.070781 -0.113790 0.136437 -0.120811 0.125175 -0.233392 -0.147963 -0.041801 0.050689 -0.074253 -0.087337 0.023150 -0.057237 -0.127601 0.082261 -0.011151 0.092209 0.122706 0.067405 -0.050060 -0.063425 0.146078 0.059648 0.050946 -0.020565 -0.099462 -0.059305 0.067270 0.024835 0.091520 0.086364 -0.090496 -0.181312 0.205113 -0.040162 -0.015173 0.114643 0.031449 -0.046518 0.123014 0.106100 0.060064 -0.019908 -0.241807 -0.015675 0.081468 -0.030144 -0.040563 0.117259 -0.003889 0.145934 0.032352 0.172310 0.078920 -0.025337 -0.014073 -0.004152 0.097786 -0.007184 -0.141415 0.091445 -0.178862 -0.078097 0.039285 -0.128244 0.026219 0.056232 0.042287 0.103486 0.004203 -0.010800 0.066711 0.042395 -0.079758 -0.063306 0.144512 -0.270359 0.130995 -0.105496 -0.112707 0.077847 -0.083862 -0.224193 -0.009244 0.180452 0.004912 -0.004366 -0.151732 0.249627 -0.258660 -0.053971 0.035847 0.145531 0.008238 0.018323 0.027687 0.174599 0.018255 0.015670 -0.019111 -0.057097 0.127329 0.018087 -0.009023 0.022535 0.088970 0.105529 0.017153 -0.036439 0.175538 -0.075773 0.134165 0.038188 -0.109903 -0.042439 0.261785 0.115424 -0.223158 0.060964 0.074039 0.131720 -0.039468 -0.043529 -0.164089 0.023489 0.035043 0.049461 -0.067271 0.073815 -0.007635 -0.054288 0.030540 -0.115892 0.016632 0.114977 0.085080 0.112245 -0.120206 0.047607 -0.044486 0.017098 0.215390 -0.220069 0.019841 0.016690 0.047622 -0.086414 0.020214 -0.122286 -0.071973 -0.092815 -0.117680 0.003293 -0.124233 -0.017196 0.039353 0.029853 0.050398 0.068171 0.046852 -0.005786 0.031917 -0.062456 -0.199316 0.066289 0.128959 -0.134036 -0.037274 0.228690 0.012126 -0.134014 -0.059125 0.095913 0.029686 -0.150788 -0.010267 0.058217 -0.035554 -0.187367 -0.017470 0.016798 -0.011491 0.201464 -0.103823 -0.080942 0.222594 -0.130327 -0.062978 0.053013 0.081275 -0.002662 0.054015 -0.113581 -0.032499 0.079240 0.054946 -0.169181 0.079545 0.047147 -0.062826 
life -0.046839 -0.075735 0.091813 -0.078561 0.083047 -0.156867 -0.102273 -0.027038 0.031266 -0.053105 -0.057030 0.015545 -0.035976 -0.087847 0.055980 -0.009503 0.060718 0.084909 0.049901 -0.036063 -0.045024 0.098635 0.037745 0.035624 -0.012455 -0.067881 -0.042335 0.046053 0.013632 0.062441 0.059977 -0.058961 -0.118979 0.139232 -0.025025 -0.008378 0.076292 0.022900 -0.029914 0.081229 0.073944 0.041698 -0.012417 -0.166787 -0.011665 0.051708 -0.021475 -0.031334 0.075501 -0.001485 0.099378 0.021119 0.118050 0.053853 -0.016643 -0.006946 -0.002598 0.067897 -0.003499 -0.096412 0.060778 -0.123662 -0.050742 0.028612 -0.084962 0.016804 0.039335 0.030853 0.072201 0.005199 -0.009288 0.044213 0.027738 -0.057473 -0.044448 0.096632 -0.181786 0.088795 -0.072309 -0.077515 0.052338 -0.054873 -0.154393 -0.007873 0.124252 0.003778 -0.000325 -0.104236 0.170656 -0.176934 -0.036785 0.021150 0.099741 0.006079 0.014360 0.019182 0.117951 0.011359 0.010745 -0.012072 -0.041451 0.088447 0.013225 -0.005769 0.014600 0.057955 0.074316 0.008169 -0.022137 0.116209 -0.051438 0.089268 0.023784 -0.075948 -0.029893 0.179763 0.077399 -0.154674 0.041279 0.053732 0.087372 -0.028055 -0.031487 -0.108063 0.018352 0.021473 0.034605 -0.046919 0.053816 -0.002300 -0.036731 0.017896 -0.077941 0.008009 0.075851 0.053968 0.075490 -0.082164 0.034917 -0.031432 0.011153 0.146447 -0.148976 0.009501 0.008198 0.030278 -0.058191 0.010917 -0.082753 -0.047031 -0.064247 -0.079360 0.000356 -0.083077 -0.013532 0.022295 0.020276 0.034349 0.047156 0.028528 -0.006716 0.019449 -0.040506 -0.133758 0.041550 0.086014 -0.091060 -0.027519 0.154313 0.008406 -0.089597 -0.039899 0.065960 0.018238 -0.102722 -0.007659 0.038720 -0.021159 -0.130212 -0.013428 0.010048 -0.005910 0.136344 -0.074016 -0.056616 0.153155 -0.087619 -0.044874 0.037500 0.052953 -0.000560 0.036689 -0.077497 -0.020717 0.055811 0.038340 -0.114073 0.052634 0.035047 -0.040261 
